5691 50
</s> 0.006804 0.001373 0.005781 0.006854 0.007943 0.007774 -0.003795 -0.006381 0.001173 0.009365 0.000291 0.000984 -0.002624 -0.009688 -0.008047 -0.006224 -0.009895 0.003988 0.000633 -0.003629 -0.001883 0.007948 -0.009189 0.006795 -0.001538 -0.003309 -0.008282 0.000119 -0.009560 -0.004499 0.006024 0.009338 0.005914 -0.005240 -0.002034 0.001561 -0.003078 0.004474 0.003013 -0.001640 0.006400 0.001780 -0.009862 0.003686 0.006604 0.002169 -0.000416 -0.008790 0.009624 -0.001273 
我 -0.071182 -0.050217 0.018242 -0.105511 -0.006317 0.015521 0.080534 0.012363 0.024010 -0.000212 -0.092423 -0.006009 0.052352 -0.120741 -0.030094 -0.087528 -0.101794 -0.015458 0.107437 0.023648 0.046313 -0.145854 0.092623 0.027522 -0.059049 -0.103509 0.049301 -0.028788 0.011308 0.045940 0.010526 0.026542 0.058373 -0.000454 -0.077495 0.017355 -0.009091 0.085973 -0.068864 -0.080515 0.050530 0.080553 0.100161 0.046347 0.043575 0.040365 -0.004618 -0.075158 0.131975 -0.074432 
的 -0.123484 -0.010374 0.046157 -0.013598 0.007906 -0.092669 -0.081833 -0.062136 -0.029764 -0.061856 -0.100493 0.030684 -0.041991 -0.036915 -0.025700 0.002910 0.044527 0.036755 0.084685 -0.018721 -0.005034 -0.183583 -0.084782 0.005929 -0.028173 -0.102785 0.029214 -0.015841 0.047383 0.116519 -0.038262 -0.057835 -0.067940 -0.028701 0.003237 0.099608 0.049013 0.095069 -0.080472 -0.190557 -0.000657 0.035494 -0.059826 0.097845 -0.021703 -0.038382 -0.117196 -0.042049 -0.064580 -0.012782 
， 0.067161 -0.006770 -0.089925 -0.044011 0.032628 0.102439 -0.037330 0.078424 -0.098131 -0.075593 -0.025628 -0.040158 0.102756 -0.020763 -0.010758 -0.044726 0.023453 -0.003314 0.057719 0.053854 0.062562 0.007976 0.008930 -0.099072 0.100543 0.025699 -0.059362 -0.120235 -0.064817 -0.060402 0.121368 -0.097840 0.073085 -0.152194 -0.027943 -0.014954 0.010402 0.092562 0.010962 -0.000438 0.054313 -0.000176 -0.026226 0.028179 -0.009812 0.054970 -0.010690 0.116501 0.098289 -0.021436 
了 -0.019888 0.039387 0.084708 -0.005416 -0.154275 -0.071392 -0.130378 -0.015410 -0.064645 -0.073325 -0.068897 0.048914 0.216439 -0.067468 -0.004812 -0.019095 -0.120495 -0.050904 -0.024581 0.043455 -0.008007 0.070583 -0.026690 0.046480 0.013290 -0.024828 0.028562 -0.080667 0.019661 -0.052922 0.052588 0.032954 0.067496 -0.129928 -0.122299 -0.089709 -0.018285 -0.005303 -0.098922 -0.148105 0.167684 0.095414 0.014663 -0.049121 -0.028998 -0.068331 -0.059567 0.110250 0.158078 0.032745 
是 -0.048485 0.043055 -0.049552 -0.049225 0.041921 0.056168 -0.021846 0.001111 0.055723 -0.114313 -0.208945 0.002423 0.066826 -0.147836 -0.049966 -0.067088 0.063375 0.039562 0.013276 -0.039471 0.083768 0.013012 0.030692 0.023618 0.111298 -0.026320 -0.046752 -0.043661 0.014335 0.033022 0.117483 -0.062188 -0.007685 -0.041721 -0.120502 0.016423 -0.022960 0.045816 -0.035865 0.044026 0.133798 -0.007309 0.106630 -0.050413 0.057448 0.007273 -0.051144 0.042069 -0.004789 0.007408 
？ -0.018790 0.013460 -0.061780 -0.064106 0.026686 -0.009891 0.032709 -0.129257 0.117800 -0.066669 -0.041372 -0.087535 0.009440 -0.084803 -0.005698 -0.084858 0.086093 0.115077 0.069737 -0.068511 0.010834 -0.003583 0.021039 -0.086234 0.079255 0.003471 0.009554 0.045453 -0.055179 0.014408 0.062162 -0.019196 -0.004728 0.019954 0.023777 0.029405 0.006789 -0.038904 0.124202 0.021649 0.049712 0.034893 0.016905 -0.130182 0.090309 -0.143736 0.011300 -0.040232 -0.071494 -0.059287 
不 -0.009474 0.065570 -0.006937 0.127539 0.044047 0.024821 0.014610 -0.092867 -0.070521 -0.013953 0.029614 -0.071153 0.153609 0.010251 0.019062 -0.031092 -0.109356 0.024607 0.048710 0.021399 -0.092895 -0.164234 0.024436 -0.004629 0.085304 -0.041481 -0.013577 -0.036467 -0.039292 -0.022604 0.056344 -0.125125 0.070091 -0.155741 -0.038897 0.032784 0.071411 0.032458 0.087736 0.061795 0.071670 0.104471 0.125072 -0.027518 0.163278 0.011292 0.022914 -0.054753 0.038610 -0.006915 
吗 -0.112719 -0.106135 -0.111508 -0.014930 0.053702 0.016115 0.070809 -0.111296 0.071598 -0.138116 -0.073690 -0.069221 -0.086151 0.081852 -0.027234 -0.219104 -0.035119 -0.006832 0.125721 0.004614 0.099403 0.066214 0.091587 -0.003810 -0.060454 0.030686 -0.002321 -0.003791 -0.136100 -0.135983 0.010992 -0.006103 0.016232 -0.040113 -0.007423 -0.033407 -0.028944 0.008437 -0.029115 -0.084775 0.038691 0.020757 0.011231 0.061775 -0.063903 0.034187 -0.059116 0.084101 -0.005152 -0.024607 
流量 0.181763 0.080692 0.065485 0.012005 0.073144 0.048048 0.029169 0.120167 0.102267 -0.075399 0.003660 0.025824 -0.069535 -0.237562 0.112855 -0.132802 0.128989 0.118575 0.002006 0.088975 0.203459 -0.068271 -0.025814 -0.095713 -0.128132 0.117955 -0.158065 -0.054151 -0.049780 -0.131087 0.024814 -0.122149 0.040343 0.050908 -0.015115 0.011891 -0.000617 -0.269181 -0.073284 -0.141559 0.095457 -0.016254 -0.052630 -0.084877 -0.008176 -0.137623 0.029815 -0.016697 0.130261 -0.008150 
] -0.147616 0.023752 0.091308 -0.006003 -0.365870 0.110115 0.100283 -0.011149 0.031063 -0.112272 -0.099730 -0.040809 -0.091391 0.227299 0.081541 0.027907 0.058741 -0.090283 0.087202 -0.106540 -0.098946 0.111231 -0.021929 0.241072 0.077037 -0.034014 0.136856 -0.102213 0.057799 -0.130314 0.191473 -0.073021 -0.028072 -0.223535 0.235228 -0.042874 -0.172231 -0.090361 0.044906 -0.177464 0.007369 0.075472 0.118987 -0.144051 0.067723 0.177355 0.009787 -0.182066 0.100219 0.008204 
[ -0.078113 -0.091767 0.083991 -0.072955 -0.317375 0.108966 0.085680 -0.015029 -0.081564 -0.051117 -0.082037 0.007757 -0.104379 0.100329 -0.028027 0.007327 0.004422 -0.213131 0.200978 -0.148376 -0.044417 0.108828 -0.005081 0.307071 0.061222 0.023892 0.141296 -0.070390 0.203955 -0.079501 0.166131 -0.106817 0.031643 -0.043436 0.237111 -0.156186 -0.235853 -0.024254 -0.051722 -0.057660 0.011355 0.008827 0.008503 -0.163189 0.124821 0.188290 0.083394 -0.269221 0.055433 0.019047 
人工 0.112571 0.069357 -0.070986 0.039848 -0.062982 0.068050 -0.035432 -0.036263 0.014796 0.139610 -0.015811 0.049901 0.024019 -0.045789 -0.044785 -0.043494 -0.091423 -0.067741 0.205072 -0.032985 0.024998 -0.093029 0.012435 0.183869 -0.049031 0.045306 -0.109073 -0.093221 -0.018784 0.075059 -0.035879 -0.026411 0.061438 -0.024499 0.158925 -0.113023 -0.042983 0.155502 0.155362 -0.090844 -0.107614 0.001468 -0.114320 -0.100916 0.071462 -0.087424 -0.138419 -0.064717 0.030440 0.089249 
有 0.034883 -0.057504 -0.138386 -0.023231 0.086022 0.039316 0.012245 -0.036966 -0.024006 -0.033860 0.029747 -0.090016 0.032959 -0.017381 0.051399 0.058355 -0.024957 -0.014433 0.122731 -0.168644 0.101024 -0.116019 0.038937 0.014493 0.151913 -0.044143 0.047182 -0.025051 -0.052869 0.169458 0.205602 0.081992 0.023659 -0.006275 -0.108036 0.191073 0.039569 0.078482 0.037898 -0.207647 -0.015837 -0.017256 0.123036 0.034913 -0.122942 -0.055484 -0.167799 -0.091770 -0.128000 -0.147463 
好 0.144780 -0.042515 0.060182 -0.075506 -0.102543 0.057729 0.126845 0.011691 0.067885 -0.119191 0.040642 0.129655 0.031689 -0.131173 -0.005906 -0.004533 -0.048880 -0.009459 0.084547 0.091040 0.078930 0.112803 0.015645 -0.029995 -0.233784 -0.088595 0.045070 0.001056 -0.143558 -0.144640 0.004538 0.071309 0.030854 0.030979 0.077203 -0.072947 0.091053 -0.029111 0.086414 -0.019465 0.061806 -0.068789 -0.063753 -0.021312 -0.100953 0.056688 -0.157678 -0.062068 -0.083732 0.108709 
怎么 -0.071655 0.008534 -0.030643 -0.111541 0.000054 -0.037228 -0.064222 0.033079 -0.077799 0.049637 0.014838 0.066684 0.097804 0.006247 -0.052296 -0.014200 -0.037228 0.064413 0.062805 -0.034383 0.068523 0.051404 0.080626 0.097624 -0.116574 0.052924 0.122541 -0.121926 -0.184340 -0.063581 0.046686 0.006173 -0.003238 0.128358 -0.210569 -0.152746 -0.010423 -0.006610 0.049514 -0.072163 0.107509 0.129711 0.075018 -0.165782 -0.076176 -0.113904 -0.057533 -0.002796 0.085587 0.045894 
客服 -0.090092 -0.128969 0.043287 -0.157400 -0.005858 0.160026 -0.038664 -0.079622 0.212255 0.135631 -0.006670 0.260552 -0.098881 0.056990 -0.051957 -0.054961 -0.043173 -0.055470 0.106715 -0.135958 -0.030984 -0.070326 -0.043372 0.010956 0.108475 0.144372 -0.050778 -0.027331 -0.139151 -0.124760 0.020996 0.141178 0.144876 0.161646 0.022641 -0.103236 0.077575 -0.025167 0.078074 -0.036952 -0.028617 -0.113574 -0.011434 -0.088098 0.084054 -0.020432 -0.001053 -0.027481 -0.030311 0.136785 
enter 0.119621 0.050490 0.055621 0.020984 -0.306354 0.231720 -0.038107 0.011852 0.073354 -0.014148 -0.022343 -0.165090 -0.073790 0.392964 0.049748 0.065402 -0.125675 -0.160580 0.143170 -0.265122 -0.195781 -0.050072 0.089035 0.410031 0.094222 -0.260893 0.077235 -0.042882 0.076472 -0.085571 0.184728 0.061298 -0.236951 -0.143672 0.206401 -0.131445 -0.002387 -0.016443 -0.122513 -0.203920 -0.173859 0.357107 -0.014161 -0.196879 0.150902 0.311226 0.024857 -0.062354 -0.018403 0.046735 
套餐 -0.171926 0.098563 -0.100814 -0.045188 0.146765 -0.045586 0.060151 0.024234 -0.002902 0.202091 -0.195885 0.176944 -0.110670 -0.289671 0.089196 -0.228180 -0.220827 0.135543 0.176205 -0.020870 0.294533 -0.028194 0.070733 0.211344 0.080208 -0.245779 -0.083644 0.056005 -0.200187 0.071478 -0.047355 -0.048384 0.040244 -0.016287 -0.132959 0.181728 0.037175 -0.031474 -0.054474 -0.027755 -0.110254 0.134472 -0.024903 -0.135231 0.086686 -0.011412 -0.219389 -0.343546 -0.020348 -0.049491 
在 0.025253 -0.139784 -0.040844 -0.090998 0.060575 0.003831 -0.026778 -0.096522 0.061713 0.063939 0.114721 0.007878 -0.022394 0.180003 -0.020560 -0.067271 0.068681 -0.141850 0.112759 -0.146442 -0.001088 -0.077430 -0.043284 -0.075632 -0.054798 -0.044206 -0.061777 -0.251942 -0.093789 0.023036 -0.036946 -0.020275 0.230195 -0.034865 0.028226 -0.044173 0.008775 0.073306 -0.039316 0.098164 0.075600 0.047386 -0.160672 -0.014714 0.237742 0.112074 -0.110376 -0.136645 0.041137 -0.072352 
能 -0.179022 -0.189010 -0.066910 -0.083264 -0.085472 -0.077692 -0.098809 0.041309 0.041707 -0.112480 0.047711 -0.054710 -0.031838 -0.123585 -0.017767 -0.055981 -0.046113 -0.089085 0.049518 0.015550 0.136177 -0.094205 0.139043 -0.054120 0.109374 -0.004418 -0.037967 -0.047871 -0.060088 0.052889 0.081615 -0.040428 -0.026773 0.015926 -0.037690 -0.040400 -0.024855 -0.023018 -0.013179 -0.022017 0.084878 0.059516 0.086553 -0.057404 0.058946 -0.022075 -0.043249 -0.047324 0.017425 0.009880 
什么 0.055811 0.070072 0.031490 0.107015 -0.071471 0.007535 -0.019568 0.196124 0.051884 -0.006785 -0.057060 -0.006951 0.048369 -0.140770 0.116133 -0.241799 0.153999 0.105088 -0.055730 -0.188058 0.058733 -0.021227 0.089895 0.102514 0.159070 0.045676 -0.007955 0.054769 -0.084902 -0.083261 -0.033986 0.029100 0.157261 0.071236 0.077958 0.048608 0.083845 -0.023640 0.085624 -0.043431 0.012639 0.139655 0.190844 0.010423 0.072847 0.068517 -0.053446 -0.124959 -0.109162 -0.018216 
可以 -0.039147 -0.003042 -0.132818 0.082926 -0.048688 -0.031052 0.030047 -0.080542 0.037387 -0.135876 0.042329 -0.115743 -0.113286 -0.069572 -0.065557 -0.092653 0.008263 -0.001854 0.162139 -0.074403 0.056879 -0.037871 0.015972 -0.058726 0.091154 -0.106449 -0.026057 -0.024217 -0.007426 0.044125 0.009054 0.012435 -0.041890 0.014726 -0.110854 0.002706 0.104402 0.073061 -0.052150 -0.080000 -0.038891 -0.038281 0.083480 -0.064527 0.108829 0.066973 -0.141105 -0.157833 0.073203 -0.052592 
就 0.098377 -0.048459 -0.032260 0.004193 -0.078973 0.074055 -0.011989 0.039962 -0.080343 -0.025196 0.003823 -0.160183 0.148058 -0.076249 0.072457 0.033463 -0.053309 -0.008371 -0.083413 0.075077 0.011661 -0.072378 0.062095 -0.042305 -0.025971 -0.107883 -0.165658 -0.105948 -0.120810 -0.019636 0.047243 -0.155729 0.105911 -0.186433 -0.153947 0.085629 0.008372 -0.064107 0.017548 0.023823 0.058249 0.195855 0.064506 -0.049658 -0.027075 0.035872 -0.174524 0.044046 0.110772 -0.066417 
没有 0.096375 0.065488 -0.124212 -0.029876 -0.085749 -0.026628 -0.076681 -0.036224 0.045521 -0.024118 -0.080011 0.106245 0.148159 -0.051711 0.000186 0.031826 -0.054714 0.019206 -0.137943 0.057754 0.011966 -0.039398 -0.015383 0.049530 -0.027740 -0.057561 0.040246 -0.008921 0.096835 -0.002599 -0.030907 0.024888 0.116247 0.001484 0.011323 -0.027766 0.018219 0.029268 -0.017401 -0.086823 0.052996 0.070241 -0.003424 0.048330 0.057932 -0.052940 -0.023142 -0.002823 -0.034187 0.012829 
元 -0.070977 0.111222 0.021437 0.061817 -0.070826 0.126491 -0.086836 0.243364 -0.134490 0.120094 -0.343638 0.090555 -0.117532 0.007992 0.087047 0.033747 -0.043622 0.010212 0.247327 0.101461 0.202588 0.065161 -0.168550 -0.016312 0.080416 -0.073576 -0.182790 0.063678 -0.165102 -0.038275 -0.069663 -0.151190 -0.008653 -0.014329 -0.194907 0.237651 0.178799 -0.300893 -0.151988 -0.078471 -0.142814 0.053195 0.024684 -0.170135 0.006903 -0.090180 0.227236 -0.187430 -0.005611 -0.005607 
没 0.076532 -0.045298 0.063680 -0.003077 0.137396 0.164406 -0.067275 -0.025056 -0.124948 0.129756 -0.032327 -0.041287 0.035386 -0.103224 -0.084773 0.123000 0.050663 -0.083877 0.053883 0.032751 0.005096 0.104601 0.009690 -0.038033 -0.028251 0.011370 0.067150 -0.000117 -0.121899 -0.023007 0.012796 0.014845 0.273420 -0.061874 -0.185016 0.043446 -0.082379 0.071059 0.057864 -0.002108 -0.008849 0.002827 -0.063410 -0.046634 0.139668 -0.187346 -0.012873 0.031056 0.050392 0.015435 
谢谢 0.068876 0.022424 -0.002150 -0.142768 -0.010784 0.164559 0.139847 -0.102798 0.045528 -0.185244 0.015416 -0.037068 0.149349 -0.155402 0.036113 -0.102204 -0.005257 -0.020917 0.199984 0.015875 0.225449 0.185339 0.009254 0.063202 -0.055593 -0.052564 0.023731 -0.033772 0.011707 -0.059350 0.006307 -0.029106 0.109789 -0.024397 -0.023229 -0.200412 -0.006496 -0.111518 -0.033567 -0.120308 0.129041 -0.053983 -0.013999 -0.001544 -0.051002 -0.080881 -0.195233 -0.075635 0.065548 0.096369 
这个 -0.018928 -0.115673 -0.074404 0.005020 0.000574 -0.030196 0.123775 -0.135384 0.017900 -0.068070 -0.052654 -0.048888 -0.049006 -0.036186 0.003282 -0.056817 -0.108265 -0.031724 -0.049010 -0.004685 0.132342 -0.077955 -0.007567 -0.011174 0.184487 -0.027869 0.062939 0.064597 -0.045222 0.044369 0.125120 -0.054083 0.076452 -0.030700 -0.040421 0.086481 -0.040407 0.141150 -0.187491 0.062425 0.093014 0.114396 0.059770 0.049978 0.094773 -0.085515 -0.024227 -0.140926 0.013370 -0.141402 
用 0.126338 -0.012518 -0.182633 -0.017145 -0.108821 0.056257 -0.025857 -0.005182 0.088488 -0.033916 -0.011324 -0.081644 0.145354 -0.022578 0.047615 -0.144387 0.111136 -0.196789 -0.028070 0.070366 0.230267 -0.044218 -0.020370 -0.109382 0.059598 -0.015747 -0.062499 -0.141964 0.182162 0.126934 0.052601 -0.110316 0.004077 -0.128129 -0.160395 -0.012239 0.012419 -0.117111 -0.115928 0.028732 0.046940 -0.134154 0.100001 -0.204519 -0.124420 0.072231 0.065334 0.002215 0.060871 -0.126077 
你 -0.058732 -0.144838 0.023829 -0.026175 0.059694 0.161859 0.193861 0.057432 0.046725 -0.169312 -0.083815 -0.113743 0.180615 -0.134981 0.026177 -0.077099 -0.086625 0.076123 -0.036596 0.116194 -0.257172 0.056876 0.168691 -0.083377 -0.243879 0.022809 0.009902 0.086639 -0.180805 -0.069579 0.087225 0.122344 0.192242 -0.128405 0.006774 -0.015160 0.019377 0.097290 0.233861 -0.166305 0.103632 0.084689 0.115672 -0.015687 0.098574 0.043656 -0.085579 -0.063485 0.064145 -0.160326 
那 -0.031980 0.015988 0.022093 0.121130 0.001693 0.063890 0.110632 0.018639 -0.080975 -0.243452 -0.012658 -0.261460 -0.064907 -0.058296 0.140988 -0.084714 0.085413 -0.046818 0.053826 0.010198 0.149417 -0.049534 0.170081 0.007378 0.020180 -0.029050 -0.010255 0.003359 0.021031 -0.066954 -0.047352 -0.026345 0.023522 -0.093273 -0.152920 -0.000331 0.059830 0.011688 -0.051719 0.122523 0.088181 0.035650 0.119348 0.036563 -0.083245 -0.053958 -0.066991 -0.128151 0.090105 -0.080951 
啊 -0.088263 -0.002345 0.132307 0.127876 -0.118548 0.011662 -0.079483 0.078495 -0.023836 0.023018 0.009750 0.036332 0.263924 0.063300 -0.091839 0.040570 -0.010407 -0.131016 0.015716 -0.052221 -0.022136 0.034568 0.003210 0.047498 0.102660 0.067142 0.070652 -0.112952 -0.024217 0.126392 0.077064 -0.035387 0.091363 0.040273 -0.135170 0.080991 0.013198 -0.092942 -0.037579 -0.033721 0.164922 0.103852 0.008063 -0.137408 -0.157869 -0.043688 0.086515 -0.031786 0.052242 -0.033082 
手机 0.006852 -0.067668 0.071185 0.067290 0.041379 0.074307 -0.081041 -0.135140 -0.001474 -0.100089 0.027454 0.133081 0.062193 0.113273 -0.072723 -0.118632 -0.180182 -0.073650 0.004269 0.014898 -0.086953 -0.029470 0.146883 0.081550 0.249966 0.081671 -0.090256 -0.083186 0.013776 0.068548 -0.006037 -0.056890 -0.151058 -0.035164 -0.061337 0.032934 -0.041109 0.249133 0.005720 0.024084 -0.052683 0.018921 -0.051143 -0.126992 0.032245 -0.017706 -0.067223 0.001277 -0.070248 0.106534 
到 0.113695 0.058579 -0.126086 0.103372 0.041615 0.227880 -0.082389 0.072695 -0.187300 0.029621 0.147333 -0.005963 0.072902 -0.089815 0.047149 -0.086245 0.119714 -0.299012 0.115408 -0.113412 0.017611 0.023877 -0.005121 0.042877 -0.176935 -0.159371 -0.067418 -0.099302 0.111837 -0.062752 -0.085642 -0.110350 0.003576 0.019447 0.017307 0.152653 -0.077383 0.125729 -0.023263 -0.120440 0.089187 0.087683 -0.121485 0.023520 0.228127 -0.160906 0.123797 0.210273 -0.006360 0.011890 
现在 0.049250 0.009381 -0.132121 0.053202 -0.065471 0.053973 -0.050551 -0.038873 -0.034440 0.050836 0.035587 -0.033100 0.004059 -0.034984 0.049033 -0.187332 -0.096609 -0.092822 -0.019852 -0.017546 0.117010 -0.100463 0.225600 0.065855 0.035121 -0.038473 -0.096956 0.006230 -0.037014 0.054719 0.024938 -0.043113 -0.071024 -0.069083 -0.075332 0.059605 -0.041732 -0.035681 0.000081 0.109186 0.097320 0.042402 0.072163 -0.000713 -0.031898 0.027865 -0.020556 -0.055190 -0.035160 -0.002022 
都 0.089182 -0.008183 0.044000 -0.054765 0.072207 0.065234 -0.097258 0.011678 -0.094882 -0.054118 0.077104 -0.000460 0.116843 -0.185139 -0.028658 -0.050375 0.110356 0.065681 -0.111933 -0.061344 -0.128682 -0.159806 -0.134486 -0.030162 -0.026635 -0.069442 0.195655 0.032149 0.018092 0.012682 0.032227 -0.041606 0.045963 -0.181124 -0.133537 0.116150 -0.031096 0.000207 0.035590 0.134609 0.043657 0.007080 0.001149 0.008192 0.070579 -0.000166 0.038212 -0.101488 0.065337 -0.069370 
吧 -0.075609 -0.016760 -0.188872 -0.135140 -0.074297 -0.091600 0.162772 -0.003839 -0.037614 -0.141350 -0.106786 -0.079564 0.163045 -0.055114 -0.011085 -0.001036 -0.042186 -0.136294 0.110107 0.092428 -0.043192 -0.156487 -0.081014 0.007123 0.070560 0.101398 -0.002679 0.046645 -0.123707 -0.118925 0.053333 0.002730 0.030449 -0.199938 0.024830 -0.006655 0.016639 -0.084297 -0.021400 -0.099780 0.127647 -0.024744 -0.161950 -0.054236 -0.138519 -0.018892 -0.111353 -0.003353 -0.075094 0.006220 
个 -0.000709 0.223663 -0.231617 0.012933 -0.160037 -0.009217 0.240836 -0.121039 -0.054144 -0.227731 -0.238894 -0.063503 0.082039 -0.266996 0.140582 -0.015954 0.016168 -0.103035 0.095648 0.059894 0.157018 0.016908 -0.091458 -0.004899 0.105683 0.091960 -0.079294 0.108605 -0.112577 -0.061797 -0.083736 -0.102386 0.025354 -0.072948 -0.228178 0.227761 -0.105800 -0.248240 -0.011305 -0.089443 -0.040330 -0.055574 0.141885 0.169108 0.160750 -0.042356 0.155917 0.170813 -0.006604 -0.070568 
话费 0.050682 0.098561 -0.025810 0.007868 0.262326 0.296100 -0.160107 -0.005304 -0.114335 0.149222 -0.358519 -0.031170 -0.092959 0.063195 0.156679 0.158125 0.205945 -0.077717 -0.025897 0.051889 0.128999 0.203790 -0.047739 -0.015766 -0.076306 -0.175380 -0.048790 -0.334114 -0.116776 0.160899 0.034319 -0.128892 0.067681 -0.041784 -0.069552 -0.123860 0.043015 0.192700 0.048950 0.034126 0.169220 -0.139229 -0.123023 -0.109158 -0.140579 -0.115600 0.121964 0.030584 0.038093 -0.032789 
N -0.092610 -0.146626 0.109129 0.363624 -0.024970 0.113375 0.198593 -0.051146 -0.208718 0.002352 0.033232 0.152438 0.199408 -0.119992 0.166930 0.019291 -0.130741 0.187215 0.152022 -0.166126 -0.053761 -0.069120 -0.022218 0.071403 -0.189871 -0.057497 0.138613 -0.024492 0.128030 0.022028 0.070757 -0.106120 0.437075 -0.064896 0.204404 -0.102500 0.163740 -0.159882 -0.338943 -0.286061 0.309412 0.111636 -0.172625 -0.144456 0.089748 -0.258125 0.067653 0.161707 -0.219020 -0.138938 
想 -0.144988 -0.089218 -0.066209 -0.089676 0.040633 0.128897 0.061050 0.110755 -0.005224 -0.013776 0.028352 0.021330 0.015777 -0.061776 -0.115830 -0.139405 -0.150850 -0.017547 0.159016 0.073039 0.108305 -0.067412 0.164971 0.032522 0.048799 -0.036688 -0.034924 0.106880 -0.171084 -0.047440 0.099866 0.040685 -0.007904 0.051180 0.030063 -0.075457 0.040293 0.047722 0.007618 -0.088508 -0.131489 0.030341 -0.032274 0.108636 -0.052343 0.061099 -0.159274 -0.154602 0.234185 0.086907 
办理 0.006664 -0.024925 -0.017397 0.002574 -0.082410 0.088294 -0.003564 0.053285 0.019406 -0.218601 0.017383 -0.001526 -0.178645 0.042106 0.139571 -0.062780 -0.070591 -0.065186 0.144138 -0.075030 0.141103 -0.073364 0.143633 0.051237 0.062753 -0.029064 -0.148047 -0.008639 -0.118424 -0.284049 0.099206 0.049639 -0.100905 -0.088377 0.083793 -0.073188 0.192984 -0.089229 0.042948 0.109553 -0.022897 -0.082619 0.053936 0.033891 0.126939 0.043372 0.022374 -0.072867 -0.011113 0.105407 
密码 -0.305678 0.128288 0.039530 -0.161613 -0.310268 0.246764 0.024081 -0.238225 0.187037 -0.063189 0.139109 0.256793 0.115388 -0.020665 -0.288827 -0.055761 -0.042567 0.275804 0.087304 0.259317 -0.256722 0.108724 -0.285216 -0.298467 0.097976 0.069043 -0.121372 -0.290796 -0.262672 -0.257403 0.061556 0.032294 0.071459 0.165133 0.048165 -0.063607 0.128458 0.050440 0.319411 -0.312639 0.038730 0.192538 0.516325 -0.310770 -0.270185 0.012269 -0.234850 0.058907 -0.128948 0.298944 
说 0.053278 -0.059287 -0.135320 -0.054104 0.229161 0.009598 -0.038982 0.085936 -0.167482 -0.029201 -0.084155 -0.058358 0.149475 -0.086195 0.095154 0.082011 0.017238 -0.052724 -0.031516 0.065213 -0.110722 0.034184 0.058185 0.011972 0.054685 0.064117 0.053074 0.033721 -0.127503 0.161704 0.092939 -0.042332 -0.011875 0.009568 -0.018151 0.068910 -0.099457 0.064334 -0.010038 0.094635 0.138070 0.265206 -0.024525 0.061465 0.016534 0.054481 0.034490 0.105823 -0.050151 -0.038918 
哦 0.091090 -0.078309 -0.010851 0.075118 -0.213148 -0.021897 -0.008962 -0.119029 0.015042 -0.125852 -0.055855 -0.064519 0.049119 0.033935 -0.007179 -0.161188 0.038317 0.000272 0.020269 0.004079 0.073654 0.058972 0.060606 -0.045773 -0.128197 0.134732 -0.037817 -0.024959 -0.169401 -0.034233 -0.110651 -0.071133 0.165816 0.119120 -0.102334 -0.086171 0.153000 0.030479 -0.071755 -0.019959 0.101356 -0.018593 0.028335 -0.122651 0.093897 -0.087244 -0.148355 -0.196254 -0.134777 0.069491 
月 -0.170677 0.009010 -0.101250 0.016726 -0.114097 0.043787 0.029286 -0.054493 -0.051532 0.044392 -0.306450 -0.110338 -0.098669 -0.249331 0.187375 -0.052466 -0.073008 0.097322 -0.111990 0.055631 0.107200 0.129510 0.120686 -0.126785 0.222933 -0.210564 -0.192218 -0.044716 -0.140577 -0.011295 0.064894 -0.003401 0.042061 0.112074 -0.184491 0.244010 -0.089472 -0.320538 0.024062 0.000175 0.092780 -0.264741 0.202204 0.237734 -0.162928 -0.004244 0.028611 -0.050981 0.084102 -0.209835 
_ 0.015223 -0.104903 -0.183107 -0.037279 -0.055350 0.126341 0.302658 -0.040399 -0.079379 -0.127904 0.058861 -0.071994 0.230422 0.267312 -0.193239 -0.089735 0.121972 -0.089816 0.362813 0.224245 -0.244735 0.396925 -0.277499 -0.109305 0.028541 0.086976 0.204075 -0.189881 -0.022705 0.008977 -0.054533 -0.088938 0.167316 -0.285206 0.267206 -0.118242 -0.281802 -0.273668 -0.140349 -0.180533 0.114426 -0.302377 -0.093017 -0.337312 -0.138459 0.026825 0.327460 -0.431208 -0.121093 0.228766 
还 -0.053521 -0.051526 -0.013229 0.047809 0.050084 0.165696 -0.121718 0.012323 0.032419 -0.033591 -0.096009 -0.128549 0.053034 0.004442 -0.055428 -0.010597 0.042313 -0.169616 -0.037663 0.024027 0.096129 -0.088254 -0.021064 0.107795 -0.010699 -0.100252 -0.144896 -0.141888 -0.042426 -0.050969 0.137640 -0.007475 0.111477 -0.071710 -0.025572 0.123584 -0.032976 -0.026024 0.028339 0.023227 0.055062 -0.007754 0.019659 -0.091523 0.059653 -0.080959 0.106000 0.021731 0.192730 0.014649 
给 -0.034190 -0.087809 0.040639 -0.100304 0.109673 0.028573 0.098248 -0.014759 -0.136231 -0.123336 0.007542 0.022972 0.175039 -0.056365 -0.025719 -0.073731 -0.088421 0.022117 0.020794 0.098755 -0.135417 -0.047504 -0.031218 -0.089160 -0.124221 -0.069211 0.230659 0.114670 -0.080986 0.007178 0.103009 0.101732 -0.034656 -0.080421 -0.093742 0.255340 -0.118961 0.025882 0.084749 0.135535 0.098444 0.239734 -0.074107 0.005398 -0.040114 0.064632 0.135990 0.082542 0.108827 -0.147891 
\ -0.033191 -0.095021 0.018382 0.280941 -0.007067 0.313138 0.104117 0.032281 -0.146276 -0.216485 0.184793 0.324340 0.205684 -0.004411 0.169488 0.079584 -0.131838 0.143799 -0.085098 -0.190066 0.019429 0.005346 -0.057894 0.117788 -0.001004 -0.111467 0.143215 -0.109937 0.210104 -0.030385 0.082269 0.014365 0.370185 0.074272 0.017200 -0.015439 0.021553 -0.093725 -0.150320 -0.114459 0.262348 0.072186 -0.000343 -0.160052 0.280887 -0.285329 0.068407 0.023319 -0.297216 -0.239498 
移动 0.099673 -0.081370 0.069898 0.028032 0.240599 0.203749 0.023492 -0.031963 0.175783 -0.166012 0.133779 -0.002476 -0.025057 0.053150 -0.264440 0.115314 0.148945 0.183418 0.026408 -0.250053 -0.052846 -0.039289 -0.044351 0.059487 0.271634 0.078102 -0.090287 0.030613 0.087814 -0.085098 0.036697 -0.142107 0.114488 0.095386 -0.067686 0.124064 -0.054263 0.191832 0.063155 -0.083859 -0.034473 0.040998 -0.043619 0.335159 0.010279 -0.035522 -0.065025 -0.075744 0.013587 0.082676 
em 0.012866 0.058216 -0.030023 -0.266899 -0.278995 0.127693 0.188847 -0.035063 -0.228466 -0.145114 -0.110634 -0.076706 0.082655 0.082421 -0.030621 -0.140966 0.054389 -0.133621 0.152722 0.275990 -0.161144 0.343762 -0.231120 -0.020458 0.047041 0.258438 0.074684 0.076663 -0.192217 -0.112330 -0.058572 -0.025257 0.278064 -0.451416 0.187416 -0.178643 -0.366924 -0.175372 -0.097236 -0.248688 0.096633 -0.179322 -0.048412 -0.184322 -0.087725 0.057712 0.382406 -0.244458 -0.051329 0.237758 
。 0.118909 0.163794 0.059883 -0.039289 0.061124 -0.028807 -0.062929 -0.149083 -0.141637 -0.043600 -0.129651 -0.024643 0.022621 -0.091791 0.063726 0.041039 -0.058295 0.121717 -0.005506 0.164302 -0.056483 0.065533 0.100708 -0.042593 0.134968 -0.039093 0.096962 -0.080000 0.085819 -0.083375 0.093077 0.102469 0.008390 -0.228551 -0.115983 -0.017840 0.004261 -0.005052 0.019983 -0.127069 0.070639 -0.128514 -0.036492 0.008118 0.046057 0.066628 0.017703 -0.082957 -0.003469 -0.064799 
号 -0.124977 -0.102279 -0.094486 -0.207446 -0.141069 -0.011149 0.137582 -0.137478 -0.096704 -0.197638 -0.104475 -0.016131 -0.006048 0.176738 -0.245124 -0.009917 -0.043421 -0.162002 0.172760 -0.096337 -0.025380 -0.134013 0.034110 -0.101939 0.245950 -0.253951 -0.115136 -0.176858 -0.047491 0.001693 0.100521 0.033384 -0.041460 0.082904 -0.013579 0.125687 -0.204147 0.072603 0.267045 0.128768 -0.026769 -0.242725 -0.167888 -0.087534 0.083119 -0.157973 0.010634 0.115773 -0.044043 0.026340 
呢 0.059582 0.003321 0.011541 0.018434 -0.023934 0.085335 0.048207 0.028383 -0.060603 -0.028059 -0.123061 -0.171409 0.050361 0.056489 -0.009378 -0.013813 0.037160 -0.087553 0.073876 -0.151440 -0.007190 -0.073713 0.005443 -0.030984 0.017943 -0.038675 -0.010705 -0.060957 0.018979 0.058525 -0.043797 -0.039390 0.109913 -0.080458 -0.004502 0.010731 0.074272 -0.074301 -0.075658 -0.079906 0.040026 0.081376 0.050286 0.030355 0.011426 -0.156933 -0.031565 -0.065358 0.027472 0.019086 
为什么 0.112540 -0.069555 0.079167 -0.093656 0.063455 0.020100 -0.082915 -0.029204 0.020661 0.144847 -0.038440 0.174016 -0.003041 -0.142487 0.142322 0.099833 0.040329 -0.138971 -0.145585 -0.086948 0.093119 0.023821 -0.071289 0.001459 0.057426 0.087732 0.086254 -0.116167 0.090639 -0.104827 -0.091372 -0.137081 0.142612 -0.111292 -0.029309 -0.033390 -0.036964 -0.046039 -0.106366 -0.027139 -0.040339 -0.010693 -0.109384 -0.145678 -0.064420 -0.169775 0.005892 0.160550 0.222316 -0.121882 
服务 -0.085888 0.107762 0.016980 -0.086319 -0.035997 0.098417 -0.187516 -0.094298 0.033702 0.033257 0.137137 0.085906 -0.049650 -0.001832 -0.147551 -0.011916 -0.110133 0.069820 -0.051032 0.072885 -0.094549 0.012381 -0.078776 -0.041648 0.051795 0.045501 -0.075929 -0.128018 -0.134840 -0.148897 -0.039835 -0.036757 0.194471 0.032235 0.144769 -0.099112 0.167326 -0.017366 0.282920 -0.118013 0.047905 0.093733 0.069510 -0.158905 -0.094841 0.012373 -0.146851 -0.084217 -0.001550 0.210032 
要 -0.175917 -0.174070 -0.017314 -0.154501 -0.074889 -0.073680 -0.189278 0.174443 0.092408 -0.156765 -0.105540 -0.050227 -0.034298 0.029197 0.000981 -0.036545 0.038719 0.036577 -0.103670 0.095603 0.071838 -0.078139 -0.030075 -0.055751 0.063767 0.079892 -0.038304 -0.069865 -0.089818 -0.111897 0.038378 0.082696 0.118172 -0.128119 -0.016734 -0.085816 -0.095345 0.093301 -0.024910 0.014944 -0.040137 -0.012032 -0.172539 0.120249 -0.052461 0.131957 0.032848 -0.091393 -0.087546 0.009769 
取消 -0.285929 0.019850 -0.111660 0.106858 -0.140780 -0.011765 0.027049 -0.007456 0.132499 -0.122152 -0.102858 0.074222 0.160064 -0.210383 0.048290 -0.073074 0.010028 0.069882 0.045013 0.105987 0.131129 -0.087762 0.071384 0.081037 0.099132 -0.138817 0.061510 0.205400 -0.217272 -0.138817 -0.006218 0.210788 -0.207795 -0.008984 -0.045739 -0.184503 0.055960 -0.140822 0.017745 -0.085427 0.102176 -0.036367 -0.031523 0.105580 -0.012128 -0.111146 -0.002558 -0.212418 0.106842 -0.208141 
一下 -0.083727 -0.049609 -0.048361 0.081975 -0.088663 0.125785 0.150181 -0.004544 -0.041278 0.005954 -0.106400 0.111921 -0.032971 0.075029 0.117378 -0.083152 -0.124760 0.095223 0.246073 0.018779 0.029011 0.044311 0.261439 -0.018929 -0.169320 0.033205 0.159730 -0.066051 -0.050615 0.130627 0.128492 0.162507 0.165833 -0.001982 0.158213 0.073784 0.067726 0.177452 -0.090164 -0.166838 0.029096 -0.003633 0.202599 0.125637 0.114817 0.036594 -0.067374 -0.053364 0.157393 0.078228 
也 0.012270 -0.027320 0.027516 0.077270 -0.065825 0.052948 -0.054484 0.070053 -0.070243 -0.090288 0.075096 -0.039770 0.214482 0.066405 -0.051237 0.002138 0.059407 0.006351 -0.194746 -0.068004 -0.103809 -0.036279 -0.060906 0.083499 0.040399 -0.063168 -0.031324 0.002474 0.028798 -0.026693 0.052872 0.008414 0.178746 0.005340 -0.175816 0.050408 -0.084254 -0.007296 0.088278 0.141568 0.132439 0.060891 0.101328 -0.036732 0.036983 0.160436 0.032432 -0.051587 0.110118 -0.114046 
你们 -0.111716 -0.093119 0.084606 -0.187460 0.302441 0.044246 -0.015421 0.179518 -0.157179 -0.175349 0.020757 -0.280981 0.158725 -0.197004 -0.147032 0.032158 -0.085033 0.117521 -0.053161 0.085227 -0.157659 0.039609 -0.021302 -0.065124 -0.022915 -0.034759 0.133120 0.177097 0.047790 0.029689 0.090184 0.086038 0.197312 -0.230661 -0.033944 -0.041676 -0.191862 0.014641 0.166760 0.067413 0.169615 0.180946 0.121795 0.126888 0.225738 0.190637 0.001765 0.026334 0.044319 0.033297 
这 -0.095496 -0.137027 -0.005921 0.217863 0.039398 0.029255 -0.128971 0.002120 -0.054766 -0.137053 0.051245 -0.112019 0.072838 -0.034299 -0.030484 0.021712 0.038677 -0.009096 -0.081261 -0.075213 0.112106 0.119384 -0.044478 0.112542 -0.049541 -0.018827 0.112434 0.102345 -0.061531 -0.039828 0.018017 -0.103520 0.046713 -0.160853 -0.032759 0.018867 -0.082577 0.032400 -0.054755 0.096746 0.161349 -0.122500 -0.116035 0.126191 0.026127 -0.025094 0.091177 -0.010070 -0.042629 -0.030387 
查 -0.053528 -0.067788 -0.081016 0.136328 0.054267 -0.010735 -0.077290 -0.146879 0.031401 0.070760 -0.116422 0.023742 0.011995 0.201763 0.110417 -0.174801 -0.257796 -0.015434 0.111141 -0.040789 -0.147756 0.184730 0.025483 -0.029556 -0.145957 -0.092390 0.363504 -0.191841 -0.137340 -0.003874 0.017887 0.009419 0.094271 0.098879 -0.129957 -0.014188 0.122335 0.199439 -0.005287 -0.160621 -0.090681 -0.021767 -0.050009 -0.089912 0.191317 -0.030815 0.018232 0.071895 -0.071721 0.012758 
业务 -0.073347 -0.155520 -0.114876 0.135368 0.062341 -0.089462 -0.055275 -0.027763 0.190136 -0.155769 -0.122865 0.047766 0.085704 0.009291 -0.099558 0.028333 -0.080304 0.228973 0.032307 -0.184287 0.154086 -0.012893 0.035661 0.008589 0.217501 -0.005715 0.093602 0.101200 -0.194358 -0.021052 -0.062371 0.150796 -0.130182 -0.059572 0.139709 -0.167730 0.019436 -0.062929 -0.070050 -0.317507 -0.125892 0.063754 0.243650 -0.058362 0.074628 -0.019164 -0.007907 -0.199999 -0.167092 -0.137143 
帮 -0.128169 -0.058757 -0.049285 0.050158 -0.093792 -0.048612 0.001433 0.020802 0.177465 -0.045554 -0.066969 -0.096738 0.129293 -0.020240 0.031191 0.027085 -0.123432 0.176149 0.134162 0.140140 -0.139272 -0.039421 0.289585 -0.069125 -0.119294 -0.206888 0.271650 -0.092329 -0.166422 0.022097 -0.070926 0.116384 0.054840 0.067531 0.018073 -0.115837 0.211529 0.118335 0.065273 -0.064769 -0.191999 -0.121146 0.072928 -0.074397 0.060723 -0.087247 -0.091686 -0.071700 0.124525 0.023201 
活动 0.191614 0.247320 -0.078034 -0.151079 0.285539 0.025207 0.105703 0.039999 -0.196862 0.014501 -0.131726 0.132303 0.101522 0.024435 -0.002335 0.086806 0.314238 -0.096744 0.121179 -0.038496 0.219952 0.079964 0.124110 0.135873 -0.065903 0.121302 -0.123627 -0.067783 -0.132557 0.153354 0.120072 -0.219888 0.294107 0.108896 0.014524 -0.045867 0.184421 0.065600 0.130610 -0.074863 0.193660 -0.071094 0.061038 0.113486 0.220917 0.076198 -0.174960 0.170340 -0.245586 0.036479 
那个 -0.109333 0.045787 -0.036599 0.131626 0.178692 -0.030007 -0.119166 0.103498 -0.047572 -0.179471 -0.167079 -0.020379 -0.001313 0.101359 -0.175486 -0.164093 -0.027892 0.113602 0.173610 0.148442 0.136434 0.080566 -0.024621 -0.126350 -0.011993 0.046084 -0.079856 -0.081960 -0.177648 0.092465 -0.128512 -0.174514 -0.017339 -0.066830 0.001081 0.050693 -0.015517 -0.016629 -0.125061 -0.044722 0.016518 0.154009 0.067228 0.061544 0.025584 -0.197208 0.040599 0.093604 0.008885 -0.095360 
多少 0.133193 -0.105051 -0.017627 -0.062144 -0.248254 0.146804 0.016759 -0.195439 0.042691 0.111523 -0.110856 -0.089876 -0.153414 -0.031736 -0.103041 -0.062711 -0.088329 0.191851 0.048486 -0.006095 0.002305 -0.029002 0.033668 0.005804 -0.053964 -0.029076 0.132517 -0.017537 0.038725 0.068175 0.046872 -0.066395 0.070510 0.066487 -0.060420 0.186771 0.048974 -0.032379 0.107045 -0.027522 -0.070279 -0.219968 0.104092 -0.224824 -0.217098 -0.226498 -0.086406 -0.152992 -0.112589 0.036099 
一 0.052490 -0.267199 -0.097582 0.040064 -0.014251 -0.064323 -0.113849 0.044062 -0.279280 0.038486 -0.095023 0.016803 -0.152795 0.046795 -0.213673 -0.023111 -0.097180 -0.115539 -0.053854 0.094368 0.105566 -0.102883 -0.194087 0.105011 -0.262866 0.027690 0.040552 0.113595 -0.094552 -0.049719 0.224902 -0.207369 0.069515 -0.024079 0.072839 0.261781 0.142131 -0.074656 0.090147 -0.184378 -0.097051 -0.102993 0.168690 0.118145 -0.032732 0.098748 0.077068 0.173488 0.055423 -0.132715 
一个 -0.205988 -0.103235 -0.072449 -0.100639 -0.137852 -0.005913 0.000149 -0.153612 -0.042087 -0.121175 -0.026693 -0.122124 -0.072874 -0.021796 -0.142180 -0.101708 0.006933 -0.092603 0.083204 0.025707 0.040463 -0.096960 -0.193348 -0.016884 -0.145923 -0.006912 -0.039877 -0.131878 -0.175736 0.000450 -0.026505 -0.109989 -0.064747 -0.113127 -0.193150 0.167663 -0.149599 -0.065448 -0.119278 0.011471 -0.075867 -0.013863 0.089140 0.068303 0.004151 -0.158359 0.031447 0.043935 0.014035 -0.071237 
！ 0.072093 0.027112 -0.166607 0.032511 0.054534 -0.163910 -0.026420 -0.057559 -0.218349 -0.294731 0.033330 -0.181591 0.052444 -0.017836 -0.169267 0.055915 0.051847 0.185586 0.020725 0.358732 0.032394 0.146430 -0.040445 -0.156417 0.031612 0.181910 -0.085598 -0.110580 0.121749 -0.022426 -0.020432 0.204076 0.226933 -0.215538 -0.239010 0.100928 -0.110073 0.098849 0.042071 -0.061660 0.064982 0.028303 -0.132556 -0.001108 -0.138891 -0.101054 0.013959 -0.026943 -0.021460 0.051057 
对 0.022492 -0.065635 -0.069411 -0.016231 -0.070482 0.042517 0.035451 -0.148174 -0.135137 0.021303 -0.128802 -0.119798 0.029968 0.027847 -0.039205 0.018112 0.030121 0.107945 -0.056955 -0.076179 -0.002285 -0.020518 0.056849 0.065247 -0.111648 -0.106293 0.081077 -0.071966 -0.133108 0.040303 0.027164 -0.010458 -0.009217 0.008045 -0.074783 -0.062274 -0.066224 -0.015553 -0.026181 -0.061615 0.082856 0.001973 0.062712 0.024627 -0.003852 0.005375 0.091923 0.009812 -0.133036 -0.119670 
包 0.227654 0.045481 -0.005402 -0.114814 -0.145984 -0.106559 -0.053735 0.225717 0.378624 -0.221329 -0.190983 0.078977 0.044434 -0.292222 -0.120494 -0.306547 0.210139 -0.102683 0.237634 0.216344 0.119144 -0.010034 -0.152466 -0.002474 -0.127584 0.013125 -0.129915 0.093391 -0.157723 -0.127856 0.152162 0.033730 -0.130792 0.041974 -0.062651 -0.258393 0.301617 -0.420159 -0.113968 -0.080590 -0.124081 -0.052564 0.138290 0.016421 0.020037 -0.165454 0.290710 0.074528 0.131173 -0.078677 
多 0.101319 0.121537 0.072731 -0.066198 -0.102246 0.186011 -0.030127 -0.099653 0.019125 -0.027922 -0.079242 -0.266982 -0.168802 -0.035570 0.003716 0.060741 0.073565 0.240474 -0.194323 0.141358 0.211593 0.114173 -0.087203 -0.035261 0.022786 0.047083 0.029538 -0.204501 0.049320 0.153856 0.159559 -0.049984 0.116948 -0.282909 -0.168434 0.096573 -0.180872 0.118735 -0.151236 0.169208 0.048588 -0.045082 -0.126782 0.027457 -0.134356 -0.159416 -0.019666 -0.218906 -0.003314 -0.229505 
下 -0.188126 -0.006134 -0.145227 0.068567 0.006314 -0.057973 0.167101 -0.064970 -0.001387 -0.026644 -0.138211 -0.063424 -0.136788 -0.188446 0.066311 -0.084267 -0.104462 -0.135967 0.178600 0.035135 0.058567 0.039594 0.041532 -0.085141 -0.184494 0.077842 0.028068 -0.026257 0.019781 0.001141 0.025535 0.041921 0.082333 0.071968 0.074613 0.012762 -0.007404 0.034794 0.039242 -0.241940 0.023919 -0.037800 -0.007165 0.055596 0.154942 0.058551 -0.257068 -0.073069 0.139289 -0.095234 
号码 0.026446 -0.201232 -0.073755 -0.013708 -0.095315 -0.040556 0.034741 -0.064667 0.088666 -0.023925 -0.031741 0.027378 0.172706 0.088218 0.038184 0.032347 -0.321072 0.059025 0.180909 -0.046225 -0.061926 -0.064603 0.094165 -0.145535 0.358148 -0.067581 -0.037800 -0.058318 0.149613 -0.042420 0.026065 0.001795 0.051937 -0.007192 -0.005604 0.030356 -0.008410 0.309291 0.096653 0.006278 -0.094656 -0.122767 0.112965 0.041076 0.142424 0.031307 -0.006439 0.103968 -0.011537 0.021884 
知道 -0.053827 0.076599 0.002593 -0.005849 0.030897 -0.016122 0.067657 -0.017170 0.026416 -0.115806 0.075563 -0.057025 0.078115 0.045669 -0.061214 -0.089924 -0.095047 0.028770 0.007100 -0.022629 -0.066787 0.026021 -0.046676 0.027216 -0.001302 0.099904 -0.025843 -0.012483 -0.227222 -0.123605 0.025275 -0.000772 0.002919 0.089547 -0.004832 0.054088 -0.030939 0.054440 0.069578 -0.052738 0.119066 -0.026350 0.070660 -0.007777 -0.046690 0.002621 0.047069 -0.010434 0.004054 -0.053753 
扣 0.010845 0.117282 -0.164555 0.070250 -0.025030 0.263900 -0.146524 0.147116 0.067551 -0.040912 -0.294173 -0.125855 0.026330 -0.186488 0.123377 -0.049333 0.323118 -0.097291 -0.266892 -0.124165 0.001830 0.011174 0.009612 0.097560 0.056977 0.013498 0.128345 -0.054202 0.005653 0.089442 0.095328 -0.201736 0.005771 -0.088929 -0.072484 -0.080656 -0.004959 0.100320 0.020278 0.104530 0.020621 -0.075670 0.021743 0.002170 -0.289919 -0.156444 0.267325 -0.013523 0.201469 -0.385035 
卡 -0.052204 -0.113772 -0.242867 0.203211 -0.017753 -0.130736 -0.237921 -0.216401 0.117911 -0.047069 0.103714 0.016693 -0.049286 0.232023 -0.009720 -0.166142 -0.136054 -0.081031 -0.004556 0.057279 0.036165 -0.252520 0.104815 0.048930 0.118665 -0.009809 -0.229689 -0.088200 -0.119325 0.193938 -0.022064 -0.139410 -0.099890 -0.064915 -0.082975 0.197321 0.107497 0.226004 -0.109677 -0.048965 -0.007969 -0.069336 -0.047131 0.154110 -0.051309 0.230400 -0.105932 -0.003980 0.149074 0.241327 
送 0.016556 0.134007 0.060165 -0.090937 0.177206 0.019189 0.170153 -0.036015 -0.083711 -0.098746 -0.285534 0.066597 -0.033196 0.089987 0.047059 0.249297 0.233131 -0.069691 0.156905 -0.000574 0.191698 0.181924 -0.177119 0.022481 0.037022 0.149639 0.010217 -0.157133 -0.249528 0.073283 -0.000890 -0.253165 -0.003816 0.306215 -0.214640 0.109677 0.054163 0.065163 0.106512 -0.055817 0.167713 -0.102581 -0.045940 0.081825 0.054025 -0.196881 -0.076582 0.154994 -0.095826 0.033878 
会 -0.101378 0.005306 -0.160925 -0.078542 -0.093828 0.059915 -0.025560 0.060787 0.151490 -0.107550 -0.107634 -0.189361 0.101408 -0.046300 0.025715 -0.157713 0.005115 0.051288 -0.231302 0.089883 0.005723 -0.087078 0.087350 -0.027867 0.094378 -0.034367 0.098010 -0.001704 0.133179 0.001463 0.051798 0.016083 0.124235 -0.050439 -0.070596 -0.006863 0.024434 -0.020917 -0.065285 0.029728 0.253236 0.081340 0.119522 0.037551 -0.165960 0.025373 -0.061976 -0.033566 0.238953 -0.030664 
钱 0.049070 0.243707 -0.008411 0.050928 -0.064436 0.133345 -0.019979 0.028432 0.028168 0.043244 -0.081438 -0.106027 0.064706 -0.089971 0.062457 -0.093836 -0.092862 0.088022 -0.042752 -0.141422 0.003367 -0.001269 0.015648 0.149443 -0.014850 0.032515 -0.012419 -0.041412 -0.335441 0.010225 0.198665 -0.136667 0.018748 -0.111229 -0.153021 -0.021397 -0.063732 -0.206460 -0.010627 0.171723 0.044312 -0.140818 0.069171 -0.066358 -0.194182 -0.202052 0.149169 -0.100347 0.090484 -0.250486 
办 -0.126483 -0.082546 -0.239244 0.178879 0.058011 0.019923 0.002322 -0.122710 0.071528 -0.108803 -0.004682 -0.111473 -0.078508 0.021455 -0.181533 -0.007488 -0.184582 -0.074837 0.092875 -0.061118 0.257933 0.002579 0.041399 -0.054002 0.097474 -0.048525 -0.256821 -0.044178 -0.168458 -0.041122 0.073484 -0.032342 -0.103543 -0.022614 -0.154386 0.004587 -0.040947 0.089871 -0.028594 0.201261 0.083467 -0.077598 0.060624 0.071292 -0.016361 0.187149 0.069276 -0.069907 0.088498 0.122366 
打 -0.105570 0.159562 -0.152207 0.061048 -0.088329 0.015127 -0.044830 0.062130 -0.026831 0.087023 -0.011141 -0.106753 0.303521 -0.118707 -0.102203 0.124625 -0.054161 0.013157 0.035788 0.058020 -0.194879 -0.050323 -0.049939 -0.021302 -0.063371 -0.045307 0.044217 0.016720 0.094747 0.038056 -0.030040 -0.172626 0.136871 -0.404291 0.231478 0.096781 0.087406 0.222019 0.098011 0.255611 -0.122174 0.271630 0.000514 0.023157 0.206251 0.124260 -0.095180 0.134962 0.001404 0.003833 
开通 0.051866 0.090856 0.117452 -0.214044 -0.184530 -0.195352 -0.422007 0.164270 0.187247 -0.166299 -0.128753 0.296505 0.142608 -0.057361 0.056978 -0.090945 0.027040 0.162397 0.205432 0.096024 0.027039 -0.052846 0.132026 -0.096842 0.133295 0.001082 0.021717 0.306674 -0.107909 -0.164590 0.058880 0.110589 -0.074357 -0.124141 0.118836 -0.067632 0.168459 -0.002496 -0.126139 -0.083621 -0.242095 -0.075303 0.210667 -0.073289 -0.041282 -0.125858 0.115849 -0.117878 0.107892 -0.080908 
还有 -0.061515 0.055989 -0.034795 0.057307 -0.040581 -0.129128 -0.068300 -0.068099 0.135144 0.051030 -0.126475 -0.024822 -0.066945 -0.213384 0.063095 -0.028092 0.176314 0.010625 -0.124346 0.013726 0.137890 -0.037179 0.015589 0.161217 -0.070704 0.022998 0.054178 -0.208706 -0.078127 0.045410 0.053299 0.007252 0.231453 -0.015841 -0.113577 0.064171 0.070697 -0.035879 -0.072474 -0.140656 0.004277 -0.097444 0.032095 -0.203456 0.043469 -0.006395 0.049333 -0.017123 -0.144470 -0.074989 
和 -0.000200 -0.086215 0.039153 0.243364 0.036948 0.000281 -0.036775 -0.015370 0.090004 0.099651 -0.177304 0.045113 0.159117 0.164686 -0.177647 -0.159623 0.237088 0.156118 -0.000058 -0.022456 0.079502 -0.065475 0.047496 -0.039309 0.035305 0.062516 -0.088302 -0.078764 -0.025333 -0.239617 -0.292328 -0.206849 0.016982 0.102449 0.013108 -0.093931 0.014200 -0.111200 0.006519 -0.249800 -0.057078 -0.051931 -0.129405 -0.105534 0.125141 0.178148 -0.076136 -0.019394 -0.119066 -0.263539 
时候 0.029985 -0.076838 0.049561 -0.019296 0.004817 -0.063747 -0.167942 0.024690 0.063525 -0.003419 -0.074354 0.029207 -0.059082 -0.134302 0.059878 -0.075574 0.034679 -0.146555 -0.002637 -0.306212 0.081858 0.042545 0.120802 -0.074483 0.016087 -0.011137 0.181842 0.027612 -0.215301 -0.145424 0.049906 -0.146150 -0.013009 0.053729 -0.048032 0.182777 -0.176438 0.006543 -0.084253 -0.054844 0.307356 -0.063234 0.120200 0.018646 0.021241 -0.024940 -0.075002 0.135973 -0.071807 0.124707 
短信 -0.097213 0.071707 0.245811 -0.070537 -0.062747 0.038102 -0.166533 -0.075149 -0.139658 0.171043 0.073067 0.121096 0.176866 0.071645 -0.184490 -0.053307 -0.096846 0.198102 -0.000783 0.062992 -0.216172 0.093093 0.269845 0.046591 0.045001 -0.109529 0.090972 0.006635 0.072343 -0.072285 0.249135 0.069829 0.032004 0.202567 0.049139 -0.107416 0.195876 -0.112735 -0.027624 -0.036292 -0.049708 0.222753 0.042637 -0.007734 -0.046675 0.015062 0.080085 0.249713 0.215419 -0.363459 
查询 0.041545 -0.091858 0.188647 0.287670 0.186385 0.185024 -0.121482 -0.014355 0.131712 0.138223 -0.168413 0.196766 -0.202486 0.081531 0.005644 -0.139614 -0.282664 0.078248 0.059076 -0.269943 -0.037213 0.122017 0.116723 0.005745 0.113828 -0.081487 0.232231 -0.213728 -0.000334 -0.088802 -0.026336 0.087919 0.097105 0.102662 -0.028363 -0.171562 0.294582 0.113086 0.117510 -0.311620 -0.178791 -0.160381 0.055089 -0.048229 0.122856 -0.081494 -0.056951 0.218737 0.209393 0.086459 
营业厅 0.146381 -0.118982 -0.099232 0.045392 -0.087221 -0.093125 -0.053881 -0.233354 -0.066526 -0.169811 0.224576 -0.135145 -0.211132 0.130073 -0.111400 0.015248 -0.086055 -0.133672 0.068601 -0.254817 -0.025044 0.043770 -0.005360 0.029899 0.155434 0.069072 -0.170264 -0.069268 -0.082382 -0.176004 -0.118984 0.021683 -0.027072 -0.097925 -0.096401 -0.044188 -0.002861 0.257762 0.048746 0.066051 -0.026375 0.085711 0.002523 0.365960 0.259011 0.110026 0.135491 0.289547 0.158561 0.244967 
宽带 0.079279 -0.187285 0.039855 -0.037438 -0.044594 0.235074 0.120950 -0.076202 -0.205281 -0.190660 0.318917 -0.137141 -0.006320 -0.017491 -0.341040 -0.223289 0.068594 0.258396 0.265225 -0.589224 0.186374 -0.127228 -0.016993 0.160382 -0.021248 -0.114901 -0.073890 0.052233 -0.169041 0.223480 0.068719 -0.142151 -0.081283 -0.068497 -0.053146 0.024843 -0.183669 -0.237729 0.262488 0.161507 -0.155223 -0.380378 0.011688 0.158208 0.151221 0.151533 -0.290838 0.077212 -0.293952 0.188865 
去 -0.003166 -0.201189 -0.120488 -0.115847 -0.078741 0.001991 -0.038274 -0.017007 0.102138 -0.200162 0.105391 -0.343435 -0.031153 0.100323 -0.016177 0.068344 -0.050128 -0.164799 0.156804 0.036466 0.091278 -0.214594 -0.154968 0.051793 0.023993 -0.104617 -0.002891 0.091686 0.001548 -0.065169 0.071355 -0.004184 0.216890 0.062607 -0.087389 0.047337 -0.221034 0.200653 0.159909 0.219544 0.009675 0.082921 0.148865 0.062076 0.254999 0.123216 0.042570 0.106027 0.267945 0.107676 
问 0.135722 -0.091452 -0.003770 -0.062058 0.053274 0.115205 -0.106955 0.080308 0.066313 -0.036205 -0.104723 0.119362 -0.087355 -0.089450 0.160442 -0.101766 -0.200893 0.049096 0.022646 -0.046782 0.100604 -0.195790 -0.033448 -0.103284 0.032008 0.066437 0.161515 0.018704 -0.219448 0.194494 -0.093386 0.156498 0.068226 0.100843 0.060742 -0.016466 -0.148921 -0.057355 0.141774 -0.071542 0.062617 -0.031929 -0.059494 0.059931 0.072297 0.062427 0.084329 -0.034513 0.162320 0.068744 
嗯 -0.051884 0.120086 0.009286 0.032518 -0.086246 0.056612 -0.085597 -0.067541 -0.098789 -0.038479 -0.039433 0.061641 0.108420 -0.176111 -0.080250 -0.115047 -0.046822 -0.018615 -0.062313 -0.026219 0.139028 0.098359 0.002031 -0.077135 -0.098264 -0.043405 -0.010132 -0.004187 -0.225911 0.040059 0.064934 0.095922 -0.032083 -0.070193 -0.130194 -0.122296 0.098552 -0.019132 -0.020940 -0.014477 0.056547 0.027437 -0.030481 0.047732 -0.012550 -0.102089 -0.142861 -0.027137 -0.051163 -0.003311 
么 0.019796 0.009171 -0.099226 -0.059380 -0.054796 -0.027377 0.019552 -0.078585 -0.021165 -0.073832 -0.051828 -0.019409 -0.103799 0.035824 0.132258 -0.011754 0.052137 0.041786 0.144653 -0.122842 0.035060 0.001610 -0.013556 -0.005328 -0.049834 -0.092171 -0.021638 -0.032652 -0.072849 -0.066735 -0.002927 -0.245986 0.014306 -0.215885 -0.017076 0.068791 0.027471 -0.043027 0.120572 0.009203 -0.017789 0.041075 0.065435 -0.067559 0.016527 0.019916 -0.049657 0.098840 0.100258 0.018369 
还是 0.042302 0.055415 0.030812 0.087646 0.011389 -0.056095 -0.128424 -0.012307 0.145546 -0.004271 0.027753 -0.135422 0.086588 0.047006 0.038460 -0.039293 -0.056997 -0.119897 0.022768 -0.044057 -0.013114 0.039089 -0.017572 -0.034236 0.124587 -0.089257 -0.077165 -0.330170 0.015400 0.027418 0.136382 -0.060594 0.049270 -0.017424 0.018233 0.004783 -0.068195 -0.207743 -0.188959 0.163657 0.070393 0.021628 -0.058612 -0.024022 0.015799 0.056121 0.095104 0.035690 0.007409 -0.071677 
发 -0.070894 -0.033438 0.199026 0.102924 -0.058047 -0.059991 0.113964 0.010956 -0.169245 -0.084046 0.044595 0.147131 0.119611 -0.070694 -0.127300 0.035742 -0.166564 -0.108630 -0.019030 -0.008987 -0.252258 0.192152 0.110863 -0.139433 0.155386 -0.023910 0.201812 -0.141967 -0.007266 -0.105862 0.201551 0.010988 0.040364 0.149508 0.037418 0.118043 0.026836 -0.024114 0.160306 -0.080657 0.087402 0.271963 -0.081894 0.035442 0.013076 -0.163314 0.173872 0.091860 0.236234 -0.237521 
电话 0.068685 0.039034 0.113076 0.138122 -0.084026 -0.102237 -0.098244 -0.011482 -0.038565 -0.036045 -0.022500 -0.059920 0.284446 -0.046024 -0.120907 0.202535 -0.213309 0.070473 0.062829 -0.012655 -0.055613 -0.033742 0.088016 0.064801 -0.135825 0.061830 0.178112 0.002357 0.213386 0.018968 0.050017 -0.092348 0.155263 -0.289541 0.193746 0.027453 -0.175296 0.170860 0.227224 0.252526 -0.132204 -0.079967 0.140236 0.152874 0.271208 0.103269 -0.132141 -0.000498 0.115232 0.106537 
问题 -0.020484 -0.150614 0.147087 -0.105602 0.077885 0.101100 -0.161846 0.019717 0.149139 -0.005454 0.085580 -0.141409 0.110330 -0.278700 -0.091122 0.139553 -0.170103 -0.074297 -0.066889 0.108617 -0.140030 -0.010994 0.041548 0.033608 -0.027329 0.060329 0.090310 0.098465 0.081203 0.038294 0.080514 0.105837 0.139750 -0.129387 0.085017 0.015548 -0.194864 -0.025389 -0.117526 -0.008425 0.101699 0.131895 -0.201337 0.091229 0.164660 0.207575 -0.066009 0.072098 -0.017352 0.067955 
改 -0.322579 0.000286 -0.076004 -0.081841 -0.195106 -0.046463 0.234448 -0.141112 0.063219 0.111031 -0.042736 -0.055630 -0.065874 -0.098154 -0.018130 -0.185099 -0.322907 0.001489 0.013857 -0.120244 0.182473 -0.120726 0.030597 0.100043 0.245457 -0.031839 0.046813 -0.029321 -0.116909 -0.154874 0.021660 0.116766 -0.035327 0.032345 -0.192235 0.104143 0.040392 -0.044357 0.017389 0.063747 0.089698 0.236865 0.070230 -0.032423 -0.160525 0.078563 -0.251882 -0.385232 -0.051615 0.126305 
积分 0.143539 0.129704 -0.161339 -0.460037 -0.283742 0.312236 0.010140 0.356546 0.079918 0.396749 -0.068026 0.070340 -0.176499 0.046701 -0.393624 -0.021305 -0.002954 -0.005656 -0.034732 -0.116543 -0.160834 -0.139258 0.454830 -0.079174 -0.167251 0.028070 0.138053 -0.079724 0.246871 -0.080301 -0.113247 -0.197659 0.235614 0.299403 -0.026605 -0.189676 0.046233 -0.015179 0.152183 -0.240692 0.480290 -0.050162 -0.173335 -0.013793 0.013181 -0.304905 -0.236392 -0.045390 -0.012378 0.080904 
看 0.057525 -0.252499 0.094520 0.182277 -0.053993 0.036730 -0.124177 0.119501 -0.144242 -0.116878 -0.152797 0.024980 0.091990 0.068163 -0.052044 -0.063494 -0.216129 -0.050370 0.014331 -0.012893 0.123653 -0.027675 0.043431 0.055339 -0.091487 -0.014651 0.127541 0.091053 0.060927 -0.023142 0.066914 0.076059 0.264739 0.210595 -0.086523 0.031776 0.077889 0.049970 -0.057825 -0.215673 0.011973 0.148228 -0.062359 -0.016390 0.132168 -0.126380 0.021127 -0.104876 -0.031890 -0.057981 
请问 0.119430 -0.064213 -0.074015 -0.064331 -0.029355 0.015571 -0.102086 0.057531 0.161865 0.001326 -0.085575 0.090058 -0.089139 -0.008433 0.044026 -0.017873 -0.020087 -0.001441 0.058693 -0.028664 0.085712 -0.031744 0.006101 0.056363 0.073340 0.016292 0.004857 -0.072497 -0.067096 -0.059861 -0.038649 -0.004294 0.067791 0.141099 0.132554 0.017258 0.109003 -0.007645 0.037816 -0.190006 0.002872 -0.054535 -0.065913 -0.038098 0.015066 0.043685 -0.148567 0.050081 0.091157 -0.040164 
换 -0.189516 -0.163037 -0.248994 -0.098775 -0.039107 -0.188006 0.075300 0.169342 0.110910 0.245385 -0.018161 0.161652 -0.002872 0.001142 -0.117475 0.055599 -0.362066 -0.073720 -0.028856 -0.208398 0.242725 -0.186370 0.029066 0.034192 0.056046 -0.002107 -0.236268 0.021377 -0.190539 -0.030969 -0.091428 -0.074484 0.042752 -0.065072 -0.191296 0.143371 -0.044095 0.128865 -0.040114 -0.031037 0.193837 0.087467 -0.133022 0.003906 -0.034842 0.102846 -0.093695 -0.120534 0.074697 0.091573 
上 0.281542 -0.072903 0.023781 0.063550 0.048695 -0.095259 -0.059050 0.025455 0.016516 -0.026982 0.228781 0.287449 0.065288 -0.063077 -0.221889 -0.096752 -0.044454 -0.138029 0.172475 -0.188895 -0.154391 0.109727 -0.224820 -0.074034 0.100993 -0.095351 -0.077307 -0.156222 0.025294 0.018155 -0.022854 0.009343 0.055463 -0.068490 -0.146514 -0.025058 -0.202709 -0.042092 0.208059 0.166142 0.058315 0.131331 0.074365 -0.107887 -0.074493 -0.055948 -0.173130 0.154209 0.074773 -0.070269 
10 0.000647 -0.042445 0.120465 -0.090406 -0.107442 0.041095 0.025159 -0.029371 0.078793 0.015651 -0.070582 0.275908 -0.249102 -0.074829 0.034456 -0.046525 0.139081 0.139379 0.240361 0.204869 0.003208 0.016921 -0.012332 0.018006 -0.072278 -0.049886 -0.158698 -0.039891 -0.066434 -0.130497 0.307452 0.002565 0.001893 0.022050 -0.025826 0.108219 0.043001 -0.207923 0.021154 0.005068 0.076020 0.074985 0.016948 0.131009 -0.101337 -0.154612 0.433453 -0.201690 0.035406 -0.074072 
人 0.027170 -0.090244 -0.030977 -0.028238 -0.048363 -0.008845 0.066813 -0.047782 -0.075465 -0.060963 0.045999 -0.274389 0.235533 -0.042983 -0.007665 0.088934 -0.013648 -0.126117 0.185023 -0.081741 -0.120655 -0.081823 -0.044561 -0.082619 0.111346 0.034953 -0.032463 0.041792 0.036691 0.102080 0.042510 -0.120553 0.227880 -0.163866 0.019936 0.052353 -0.123693 -0.019956 0.206136 0.093306 -0.098963 0.028549 0.226275 0.140153 0.116316 0.206814 0.012041 0.073269 0.082635 0.176174 
过 -0.093196 -0.051451 0.015417 0.089356 0.002985 -0.029251 -0.103959 -0.054987 -0.100655 -0.032213 -0.011569 -0.037584 0.141414 -0.140671 -0.200379 -0.009397 -0.234040 -0.144893 -0.086537 -0.061650 -0.149360 0.102653 -0.066445 0.074336 -0.027199 -0.160225 0.010985 -0.143483 0.016177 0.054040 0.152699 -0.113826 0.103474 0.001402 -0.063414 -0.107856 -0.100899 -0.079723 -0.020776 0.173241 0.045268 0.163987 -0.053061 0.026450 -0.040597 0.099207 0.159598 0.057067 0.042610 -0.139688 
天 0.279371 -0.116391 0.044444 0.144312 -0.151012 0.104145 -0.090214 -0.047821 -0.158079 0.021345 0.186614 -0.291165 0.094672 -0.293451 -0.109444 0.070848 0.138093 -0.009668 0.210262 0.125295 0.138678 0.170194 -0.001347 0.053168 -0.069159 -0.043487 -0.149654 0.068163 -0.106794 0.017990 -0.033950 -0.068370 0.114658 0.013567 -0.055338 0.223499 -0.038626 -0.116447 -0.030791 0.007403 0.048256 -0.019328 0.018865 -0.021824 -0.141286 0.070616 0.219598 0.241301 0.079118 -0.079931 
使用 0.257843 -0.139154 -0.202995 0.046441 0.062188 -0.069292 -0.127484 0.006798 0.232917 -0.016794 0.027030 0.095024 -0.126525 -0.064223 0.023217 -0.102091 0.143790 -0.008622 -0.185445 0.139698 0.019268 -0.187858 -0.011043 -0.072706 0.232250 0.193388 -0.060906 0.110425 0.124935 0.080441 0.180169 0.171513 0.083310 0.104055 0.086586 0.283972 0.097079 -0.130624 -0.088145 0.051756 -0.169031 0.036806 0.042401 0.016713 0.143485 0.156813 -0.138285 0.005683 0.111001 0.025672 
显示 -0.030268 -0.052911 -0.159673 -0.019203 -0.127136 -0.109583 -0.270430 -0.072498 -0.048550 0.069434 0.103738 0.320404 -0.012214 0.075753 0.108718 0.047389 -0.002411 0.140148 -0.042241 -0.117979 -0.232381 0.059452 0.038117 0.013985 0.106161 0.018412 0.187694 0.163461 0.064406 0.062745 0.020245 -0.411247 0.045988 0.076477 -0.025758 -0.095820 -0.004891 0.017336 -0.095837 -0.000069 0.064797 -0.042582 0.015227 -0.312668 0.028351 -0.185440 0.050179 0.100330 0.184299 -0.205919 
1 -0.233770 -0.060478 -0.002304 -0.073626 -0.027543 -0.120184 0.231749 -0.286657 -0.202994 0.037435 -0.067102 0.096952 -0.122455 -0.082289 -0.102735 -0.159290 0.113061 -0.145573 -0.006882 0.106198 -0.010773 0.363923 -0.176717 0.162768 0.061999 0.168719 0.047554 -0.127427 -0.002612 0.021222 0.095987 -0.006051 0.019612 -0.221813 0.233848 -0.123343 -0.217893 -0.265828 -0.110451 -0.135587 0.121822 -0.130364 -0.030356 0.029144 -0.087700 -0.026743 -0.000860 -0.188598 0.028338 0.135556 
10086 -0.076321 0.137253 0.079913 -0.010521 0.199878 -0.010423 0.023533 -0.035586 -0.114770 -0.059624 0.175321 0.023547 0.105502 -0.114704 -0.300040 0.127042 0.011235 -0.038297 0.026617 -0.082044 -0.009218 0.099179 -0.211007 0.004273 0.044623 -0.064921 -0.094330 0.022183 0.176880 0.130758 0.330303 -0.103880 0.128291 0.121782 0.290898 0.016575 -0.074432 0.221107 0.058190 0.015440 -0.087134 0.157354 -0.025443 0.009054 0.049128 0.108042 0.062064 0.086766 0.140433 -0.043837 
才 0.001620 -0.038384 -0.082276 0.036203 0.126669 0.268057 -0.082999 0.113431 0.154246 -0.034274 0.064637 -0.194669 -0.020192 0.007500 -0.061680 -0.057082 0.036519 -0.193219 -0.115513 0.034666 0.129485 -0.063102 0.008188 -0.037457 0.026920 -0.043095 -0.065052 0.086457 0.007074 -0.046482 -0.051777 -0.052111 0.060555 -0.162444 -0.226765 -0.078212 0.039927 0.101465 -0.050388 -0.002963 0.075566 -0.024935 -0.031486 0.038068 0.178483 -0.115898 0.154289 0.023755 -0.000897 -0.030941 
? 0.237767 -0.399830 -0.103064 -0.123286 0.155347 -0.117894 0.219920 -0.089561 0.230378 -0.045988 0.114970 0.444932 -0.121634 -0.073368 0.075732 0.178323 0.131157 -0.122218 0.371382 0.085770 -0.122382 -0.062407 0.470677 -0.032452 0.163131 0.075075 0.320076 0.228052 -0.203685 -0.036570 0.034969 -0.297962 -0.061202 0.248597 -0.363816 -0.039142 -0.078404 -0.233102 0.339578 -0.045163 0.220234 0.174499 -0.324022 -0.498414 -0.133624 0.352517 0.221394 -0.504205 -0.132267 0.088876 
4G -0.031834 -0.069709 0.038741 -0.024467 0.079854 -0.130862 0.059296 0.149713 -0.186213 0.080291 -0.028048 0.140845 -0.002400 -0.037113 0.069748 0.133781 0.052204 0.057144 0.130221 0.223986 -0.068634 -0.127522 0.127107 0.191042 -0.006952 0.023870 -0.477162 -0.094415 0.171008 0.158208 -0.213498 -0.011455 -0.451511 -0.087769 -0.045619 0.232789 0.294330 -0.055444 -0.201541 -0.213501 -0.023760 0.060842 -0.161748 -0.195582 0.171936 0.014561 -0.422078 -0.254155 0.158872 0.156829 
开 0.061087 0.034978 -0.292063 0.055902 0.092884 -0.093313 0.024451 0.182206 0.113385 0.087043 0.102107 -0.039928 0.129662 -0.006622 -0.135858 -0.033556 0.119860 0.013175 -0.046649 -0.086631 -0.005309 -0.038839 -0.027889 0.074203 -0.094769 0.117159 -0.085577 0.084075 0.050045 0.060058 0.017860 0.004555 0.105833 -0.062266 0.010828 0.011519 0.282352 -0.093818 -0.089903 -0.165216 -0.013051 0.041177 0.168334 -0.025389 -0.128292 0.007982 0.002058 0.094854 0.159733 -0.158064 
兑换 0.068958 0.067531 -0.185584 -0.302669 -0.115925 0.118200 -0.040709 0.100279 -0.051705 0.327909 0.078535 -0.063311 -0.109890 0.322903 -0.448090 0.033270 -0.083334 -0.117477 -0.105064 0.063435 0.044114 -0.191547 0.272951 -0.109545 -0.316329 -0.142421 0.103215 -0.107092 0.243575 -0.310430 -0.162714 -0.396975 0.144399 0.239218 0.115054 0.015246 -0.071164 -0.218566 0.004069 -0.305776 0.413110 0.193014 -0.178134 -0.075958 0.192409 -0.276973 -0.116707 0.192704 -0.071035 -0.202865 
把 -0.274225 -0.056136 -0.141029 0.058325 -0.082614 0.085301 -0.026587 0.085294 0.144256 -0.144619 -0.126988 0.037832 0.105615 -0.190995 0.036202 -0.114967 -0.068576 0.057653 0.027789 0.108186 -0.028683 -0.147265 0.112618 0.058483 0.036935 -0.009034 0.030928 0.026657 -0.146237 -0.242347 -0.149970 0.130197 -0.044441 -0.182001 -0.125740 0.032912 0.084950 0.205353 -0.040123 -0.073827 0.063253 0.055398 0.013966 0.049337 0.072714 -0.071405 0.047773 -0.053079 0.088886 -0.064407 
用户 0.216536 0.023734 0.229579 0.064950 -0.263398 0.289523 0.086547 -0.104742 0.004275 -0.123263 0.037671 -0.227720 0.318696 -0.099549 0.118250 -0.002337 -0.175034 0.203823 0.619976 0.133588 0.136128 0.165048 -0.147164 0.231958 -0.138670 -0.169206 -0.535417 0.091611 0.010495 -0.066909 -0.150718 0.186827 -0.093699 0.251671 -0.059645 0.019150 0.028193 0.227326 -0.032545 -0.575433 0.097458 -0.272939 -0.349480 -0.345608 -0.106285 0.323339 0.080106 0.179629 -0.121665 0.008196 
意思 0.053111 0.126213 -0.004551 0.075112 0.015522 -0.101346 0.131409 -0.014028 0.017999 -0.003375 -0.192650 -0.143853 -0.093063 -0.026871 -0.012583 -0.030292 0.059393 0.006451 -0.053391 -0.069278 -0.024671 -0.128523 0.014362 -0.010548 0.121881 -0.001913 0.005610 0.029021 -0.031196 0.041410 0.089185 -0.095925 0.039395 -0.099073 -0.038414 -0.057215 -0.158353 -0.058661 -0.065092 0.009037 0.193524 -0.121709 0.187729 -0.140741 -0.005909 -0.091955 -0.006559 -0.025404 -0.053359 -0.033585 
打电话 0.022839 -0.069979 -0.046770 0.014497 -0.138689 0.070407 0.065510 0.059005 -0.129116 0.040674 -0.084464 -0.163125 0.142487 -0.023336 -0.087453 0.142738 -0.022346 0.080887 -0.009494 -0.009237 -0.107134 -0.123533 0.104705 0.080663 -0.037049 0.005775 -0.008921 0.007928 -0.099021 0.158802 0.088436 -0.094611 -0.035207 -0.178721 0.049798 0.130155 -0.047394 0.177633 -0.063124 0.245787 -0.043963 0.133561 0.134743 0.040546 -0.088614 0.106099 0.016944 -0.005654 0.068533 -0.120883 
回 0.221129 -0.036302 0.118337 -0.039851 -0.338043 0.025881 -0.244369 0.040403 -0.334449 0.008442 -0.064606 -0.005880 0.213286 -0.202438 -0.133875 -0.071936 0.108477 -0.021196 -0.214761 -0.040308 0.027163 0.070520 -0.059327 0.205425 -0.002533 0.378138 0.471341 0.034768 -0.123707 0.208510 -0.192924 -0.073121 0.054872 0.031667 -0.024272 -0.049368 -0.018426 0.056007 0.032152 0.131845 0.211857 0.008360 0.116103 0.023216 0.066649 -0.154826 0.138256 0.065492 0.138117 0.189279 
是的 -0.018819 -0.080496 0.100205 -0.033323 -0.007456 -0.022409 -0.007051 0.048719 0.021204 -0.038361 -0.032734 -0.003653 0.113234 -0.067427 -0.101938 -0.059717 -0.021062 0.002402 0.012002 -0.011191 0.041502 0.043213 0.090691 0.027905 -0.016967 -0.127414 0.077498 -0.021774 -0.070662 0.015848 0.041632 -0.047458 0.049154 -0.018840 0.027732 -0.097145 0.063068 -0.010691 -0.102871 -0.147167 -0.009342 0.021455 -0.099708 0.137586 0.133214 -0.197526 -0.005960 0.025440 -0.082397 0.082465 
已经 -0.033872 0.019950 0.035423 0.024484 -0.078018 0.082721 -0.224555 -0.078131 -0.054817 -0.096546 0.128451 0.021179 0.059952 -0.010400 0.126686 -0.005947 0.068775 -0.002818 -0.125724 0.107182 -0.104236 -0.115035 0.080736 -0.016911 0.091506 -0.069129 0.161393 -0.004393 0.065710 -0.072220 0.016126 0.116861 -0.013022 0.001013 0.034479 -0.078600 0.055117 -0.004599 -0.093650 0.183139 -0.020746 -0.040094 -0.118298 -0.045729 0.069505 0.018752 0.100754 0.240484 0.110854 -0.124785 
几 0.097434 -0.077155 -0.092253 0.168146 0.048635 0.023271 -0.069032 -0.068642 -0.152483 0.091330 -0.030678 0.030538 -0.104818 -0.003822 -0.086712 0.081174 0.044534 -0.175131 0.012470 0.193993 0.138820 -0.149784 0.013146 0.035301 0.021288 -0.068640 0.095453 0.036014 -0.196509 -0.054718 0.125082 -0.019231 0.026089 0.037019 0.057001 0.185603 -0.103255 -0.067479 0.068677 -0.086615 -0.005129 0.007524 0.135295 0.026331 -0.145187 0.067410 0.165623 0.139346 0.055789 -0.060650 
: -0.061245 -0.627134 -0.512915 -0.396534 0.263211 0.092334 -0.148256 0.190788 -0.234483 0.350567 -0.095033 0.233114 -0.645027 0.089099 -0.098504 0.336161 0.037064 0.305873 0.412833 0.325855 -0.072684 0.186381 0.274591 0.114564 0.200203 0.212538 0.003651 -0.283488 -0.071353 -0.192347 -0.400163 -0.514290 -0.390524 0.050625 -0.026489 0.171728 -0.205388 0.212555 0.104246 -0.071282 -0.068421 -0.450994 -0.201163 -0.395820 -0.158106 0.286951 0.851842 -0.369196 0.052604 0.041555 
但是 0.026225 -0.046988 -0.063296 0.145204 -0.108759 0.025367 -0.136174 -0.033461 -0.022874 0.142142 0.005667 0.091676 0.093991 0.045104 0.074943 -0.171311 0.072013 0.053357 -0.100616 0.039983 -0.018969 -0.122000 -0.129946 -0.000056 0.029618 -0.104819 0.009202 -0.310531 -0.004248 0.058369 0.007638 -0.055956 -0.209136 -0.007645 0.024226 0.030177 -0.062156 0.061705 -0.040733 -0.086896 0.187397 0.118079 0.092998 -0.005490 0.047393 0.040027 0.060057 0.172019 0.186007 -0.139355 
您 0.133070 0.072246 0.029361 -0.245504 0.197969 0.064086 -0.070538 -0.158233 -0.155590 -0.121542 0.066992 0.066209 0.013748 0.052729 -0.031992 0.044368 -0.261408 0.188667 0.055503 0.164920 -0.268998 0.268418 0.103770 -0.074738 0.116046 -0.098910 -0.031118 0.091062 0.166026 -0.053861 -0.010975 0.136310 -0.165797 -0.008529 -0.071070 0.083921 0.252994 -0.038527 -0.292510 -0.304625 -0.005887 -0.072123 -0.015799 0.103455 0.188032 0.338665 -0.060002 0.131801 -0.074399 0.087308 
块 -0.008819 0.282004 -0.072983 -0.003775 -0.186215 0.100447 -0.180681 0.126874 -0.192294 -0.019906 -0.073997 -0.164862 0.004177 -0.171757 0.209659 -0.106006 0.185913 0.133768 0.012893 0.060570 0.017309 0.028378 0.007941 0.135830 0.029449 -0.084991 -0.139360 -0.038825 -0.359295 0.216795 -0.059919 -0.280621 0.016371 -0.148364 -0.148485 0.099497 -0.096904 -0.206759 -0.003810 -0.022711 0.081504 -0.190783 0.122946 -0.174851 -0.228849 -0.121422 0.337081 -0.022976 0.079618 -0.285533 
微信 0.068961 -0.050371 -0.011518 0.038854 0.114651 0.048784 -0.122383 0.015911 -0.205460 -0.172000 0.064030 0.216644 0.142159 -0.081923 -0.257690 -0.117211 0.187308 -0.169649 0.081147 -0.258120 -0.074274 0.037795 -0.078658 -0.085369 0.158200 -0.210393 -0.208217 -0.202995 0.081879 -0.026054 0.046633 0.004084 0.147733 0.295169 0.154246 -0.098273 -0.077207 0.106830 -0.032377 0.088501 0.054590 0.126885 -0.181278 -0.171983 0.123223 -0.274929 0.105793 -0.034246 -0.096470 -0.059203 
需要 -0.031412 -0.001870 -0.147603 -0.063178 -0.282303 -0.066774 -0.093832 0.010614 0.071481 -0.141214 -0.018802 -0.100082 0.089656 -0.053354 -0.063166 -0.118508 -0.089927 0.002841 0.276115 -0.000924 0.129020 -0.203125 0.134168 -0.119647 0.218102 -0.128363 0.028911 -0.091084 0.024750 0.083463 0.038590 0.175776 -0.115843 -0.044832 0.131630 -0.141651 0.031443 0.037507 0.126951 0.113332 0.031277 -0.072232 0.010980 0.042487 0.062451 0.026703 -0.021358 -0.065357 0.012126 0.082454 
5 -0.168989 0.131351 -0.059752 -0.140930 -0.146232 0.066361 0.197771 -0.157542 -0.213050 -0.007581 0.026191 -0.025019 0.135982 -0.122583 0.018715 -0.207717 0.162328 -0.053726 0.089227 0.042498 0.027943 0.184772 -0.021909 0.013837 0.323934 0.186063 0.188022 0.017763 -0.011484 0.072090 -0.190009 -0.017794 -0.110927 -0.248538 0.112733 -0.039942 -0.095913 -0.232703 -0.196518 -0.064488 0.030213 -0.024145 -0.057350 0.060603 0.105479 -0.095339 0.241112 -0.093575 0.040589 0.028472 
两 0.215627 -0.169150 -0.027282 -0.049236 0.007218 0.041960 -0.010595 0.001651 -0.224077 0.004842 0.017334 -0.053434 0.059625 -0.026477 -0.113429 0.069259 0.020188 0.033302 0.073794 -0.107092 0.191473 0.038325 -0.138071 0.005146 -0.146185 0.053799 0.102527 0.029746 -0.024343 -0.077305 0.179136 -0.059296 0.031320 0.110715 -0.197458 0.214766 0.104006 -0.026581 -0.064476 0.050748 -0.158384 0.038092 0.214355 0.240329 -0.019122 0.019831 0.082052 0.070807 0.111793 -0.176383 
介绍 -0.067865 0.109081 -0.065446 0.014060 -0.013081 0.216167 -0.005944 0.227597 0.005692 -0.047580 -0.141154 0.324339 -0.001879 0.030935 -0.189967 -0.295663 -0.024637 0.260631 -0.015324 0.051001 -0.028624 -0.186352 -0.127864 -0.049958 0.059970 0.132786 -0.255017 0.048609 0.029989 0.012605 -0.022839 0.015461 -0.076497 -0.105492 0.096551 0.031312 0.382795 -0.236607 0.319231 -0.118304 0.129248 -0.067160 0.031870 -0.247486 0.100282 -0.140814 -0.349226 -0.110923 -0.104438 0.018219 
停机 -0.085994 -0.054475 0.050687 -0.058857 -0.190924 0.269861 -0.301934 -0.290376 0.024786 0.103121 0.146761 -0.100945 0.030762 -0.176549 -0.190292 0.036085 -0.134566 -0.162463 0.055581 0.127316 -0.119250 -0.084852 0.176403 0.092462 0.183216 -0.204284 -0.012817 -0.153689 -0.006221 0.057274 -0.024463 0.206968 -0.047055 -0.269272 -0.045378 0.004224 0.057041 0.153547 0.153680 0.256654 -0.009635 -0.117725 -0.098254 -0.232150 0.003774 0.105401 0.271135 0.341660 0.332522 0.192548 
就是 -0.026847 -0.134558 0.098874 0.059970 -0.017634 -0.054718 0.088697 -0.071503 -0.164916 0.029860 -0.085408 -0.091339 0.153468 0.050079 -0.018175 -0.082404 0.101133 0.039339 0.000396 0.034041 0.058300 -0.020978 -0.170819 0.152389 0.077456 0.039330 -0.162116 -0.078168 0.008894 -0.053376 0.089154 0.064987 0.128799 -0.097414 -0.104336 0.064344 -0.064282 -0.023753 0.035496 0.106492 0.183702 0.020943 0.107270 -0.114027 -0.003690 0.094600 -0.086434 0.073890 -0.011199 0.023154 
免费 0.328685 0.086994 -0.101423 -0.052436 0.043688 -0.128164 0.063006 0.021537 -0.052161 -0.020286 -0.095015 0.086092 -0.156202 0.045228 0.029078 -0.093038 0.139236 0.120305 0.068882 -0.050767 0.058936 -0.096563 0.237772 -0.187482 0.041143 0.080450 -0.031915 0.073127 -0.268349 0.045589 0.012181 -0.176374 -0.033392 0.078668 0.172453 0.248225 0.095306 -0.033357 -0.050903 -0.030846 -0.078107 -0.024662 0.055647 -0.029619 0.008682 -0.034265 0.044759 0.081726 -0.095122 -0.092856 
今天 0.089942 -0.101850 -0.007984 0.032445 0.009647 0.172618 -0.020166 0.043696 -0.210415 0.033839 0.019491 0.034491 -0.026023 -0.246703 -0.069526 0.165527 -0.021405 0.031034 -0.075783 0.065526 -0.101161 0.074566 0.124643 0.134363 -0.204965 -0.024934 0.161986 -0.039436 -0.070151 0.071003 0.026124 -0.075150 -0.001813 -0.079662 -0.155588 -0.055464 0.087974 0.149232 -0.022436 -0.073242 0.105784 0.045541 -0.139139 0.001013 -0.042127 -0.038491 0.136964 0.318585 0.156956 -0.117236 
呀 0.045677 0.022253 -0.086141 -0.008852 -0.101856 0.050737 -0.070110 0.160678 0.058746 0.050386 0.085573 -0.072377 0.047136 0.058482 -0.063997 0.048275 -0.105757 -0.076527 0.043041 0.073248 -0.100792 0.119000 0.023070 -0.057581 0.084052 -0.024104 0.078956 -0.007805 -0.079043 -0.013858 0.047366 0.004811 0.141028 0.016905 -0.158974 0.117606 0.019260 -0.008893 0.003356 -0.066815 0.120272 0.112437 -0.051277 0.084882 0.014577 -0.109722 -0.005018 -0.027473 -0.116021 -0.137466 
买 0.112943 0.116109 0.056702 -0.029751 0.032655 0.170794 0.059346 0.110239 0.003213 -0.092101 -0.124004 0.066149 -0.174994 0.073903 0.007521 -0.041554 -0.043300 -0.102179 0.188211 -0.046565 0.038192 -0.096907 -0.083484 -0.002543 0.068220 0.010762 0.146813 -0.154389 -0.123982 0.044937 0.154843 -0.165301 -0.055678 0.163670 -0.248502 0.121331 -0.036599 0.137733 0.118913 0.028977 0.080635 0.027041 -0.112458 0.037237 0.169248 0.003088 0.097718 0.167879 0.052337 0.060046 
次 0.330615 -0.160284 0.093257 0.034890 -0.218373 0.014845 -0.143751 -0.115592 -0.368385 0.067218 -0.156797 -0.067622 0.346020 -0.141886 -0.114365 0.085346 -0.063696 0.042912 0.032336 -0.074524 -0.276998 0.192864 -0.051255 -0.013095 -0.155942 0.178153 -0.165049 0.012833 -0.033244 -0.079058 0.047706 0.018912 0.160942 0.015454 -0.272427 0.246196 -0.187171 -0.024127 -0.010333 -0.164357 -0.054143 0.064106 0.207368 0.010760 -0.361382 0.039951 0.255203 0.290158 -0.092960 -0.166374 
时间 0.078662 0.053427 -0.042681 -0.047471 -0.053217 0.229357 -0.067036 -0.171849 0.196599 0.042309 0.060137 -0.119209 -0.126499 -0.324402 -0.107881 -0.010434 -0.116071 -0.023267 0.001535 -0.053058 0.016564 -0.127649 -0.031261 -0.198962 0.110579 0.124787 0.288046 0.007153 0.067263 0.018512 0.267395 -0.129511 0.201984 -0.161589 0.208060 0.345605 -0.072818 -0.027882 -0.012619 0.044284 -0.061785 -0.278804 0.045052 0.108781 0.106919 -0.029581 0.104324 -0.042709 -0.055400 0.237189 
事 0.019766 -0.197497 0.080837 -0.089229 0.104091 -0.034808 -0.156149 -0.010420 -0.254140 0.356944 -0.077231 -0.120714 0.294500 -0.247769 0.032288 0.107309 -0.121078 0.142848 -0.065265 -0.102454 0.032446 0.152238 0.008973 0.390962 0.154011 0.251747 0.293683 -0.093967 0.060650 -0.035835 0.009337 -0.202358 -0.050314 0.052804 -0.121953 -0.266606 -0.169849 -0.010728 -0.245462 0.103948 0.046397 0.376633 -0.225829 -0.128594 -0.292371 -0.180911 -0.207978 0.101594 -0.154634 0.202358 
这样 0.054102 -0.033295 0.037769 -0.038273 -0.014974 -0.032137 -0.069215 0.040937 -0.047373 -0.100079 0.057898 -0.041863 0.155560 -0.044890 -0.039771 0.042449 -0.011121 -0.002787 -0.163027 -0.036307 -0.164179 0.023251 -0.120750 -0.041327 -0.003030 -0.010456 -0.002111 0.051971 0.081715 0.034625 0.040053 -0.088057 0.055824 -0.119539 0.069796 -0.009147 -0.062991 0.061178 0.002912 0.030368 0.099462 0.109288 0.026783 -0.061531 -0.031009 -0.000890 0.022822 0.018513 0.000350 0.023610 
分钟 0.266163 0.031103 -0.052092 -0.080395 -0.188262 0.264501 -0.014522 0.006563 -0.050213 0.319616 -0.415543 -0.280065 -0.216550 -0.078075 0.120306 0.081589 -0.058197 0.302854 -0.126334 -0.228485 0.066114 -0.215103 -0.069908 -0.151204 0.059284 -0.026677 0.060026 -0.115798 -0.069088 -0.205696 0.076647 -0.385266 0.016546 0.047559 0.210448 0.173964 0.174057 -0.034017 -0.349460 0.350497 -0.160485 -0.209200 -0.048489 -0.181518 -0.082882 0.325109 0.001403 -0.055773 -0.138051 -0.225868 
啥 -0.130148 -0.074210 0.127129 0.068686 0.095514 0.054508 0.059000 0.038573 0.158385 -0.071964 -0.206042 -0.085507 0.090015 -0.058135 0.152406 -0.004962 -0.062831 -0.033553 -0.066114 0.135673 -0.086181 -0.077999 0.006625 0.063599 0.003335 0.206134 0.067955 -0.100216 0.066925 0.012501 -0.008106 0.007422 0.144166 -0.093283 -0.155154 -0.012407 0.060651 -0.161462 0.015275 -0.129102 0.319607 -0.172496 0.249651 -0.063448 0.099524 -0.053521 0.133156 -0.104521 -0.238979 0.196726 
费用 -0.117378 0.039940 0.070977 -0.053220 -0.033632 -0.002896 -0.248545 -0.022382 0.096901 -0.024720 -0.163704 -0.133019 0.002029 0.055382 0.126275 -0.215019 0.084296 0.417920 -0.007252 -0.358520 0.090776 0.188677 0.150537 0.176255 0.268064 -0.106437 0.377595 0.046462 0.038182 0.010580 0.092653 0.016141 0.046584 -0.175477 -0.133213 -0.086136 -0.043111 -0.186425 -0.004914 0.001421 -0.084497 -0.090968 0.125271 -0.148617 0.042383 -0.131589 0.087629 -0.241990 -0.169224 -0.243242 
点 0.033006 -0.033887 0.017270 -0.068561 0.103200 0.083706 0.252637 0.064417 0.108809 0.062554 0.092854 -0.122954 0.053657 -0.155076 -0.228079 0.032349 -0.036593 0.060231 0.041780 -0.039663 0.027295 0.131294 0.128324 0.150531 -0.162083 0.007988 -0.035414 -0.107751 -0.096711 0.144533 0.063498 -0.038187 0.171752 -0.055796 -0.213048 0.199734 -0.063845 0.220483 -0.319793 -0.265118 0.131268 0.078011 0.222630 -0.054441 -0.205227 -0.181888 0.092378 -0.124143 0.119407 -0.165894 
50 -0.154393 -0.066354 -0.138233 -0.081735 0.073951 0.140208 0.076296 0.028011 -0.097371 0.255351 -0.203778 0.113386 -0.176031 -0.240417 0.047469 0.000814 -0.011941 -0.052335 -0.031095 0.172971 0.104451 0.167265 0.094434 0.122446 0.043430 0.064220 -0.004010 -0.236016 -0.100385 -0.068053 -0.093826 -0.059286 -0.259757 -0.093177 -0.159968 0.149049 0.101838 -0.012077 -0.133280 0.073079 0.102128 -0.064090 0.132259 0.069149 -0.135884 -0.311172 -0.010787 -0.087691 0.065484 -0.158225 
嗯嗯 0.016340 -0.038997 -0.027410 -0.021696 -0.045820 0.004783 0.194019 -0.028357 0.079679 -0.118028 -0.121160 -0.030408 0.101337 -0.173432 0.022841 -0.040323 -0.089151 -0.042719 0.143223 -0.058455 0.002838 0.101198 0.023677 0.087373 -0.004386 0.064633 -0.020718 -0.093963 -0.147774 -0.036552 -0.125081 -0.069814 0.003617 -0.161931 -0.060759 -0.074967 0.044168 0.015015 -0.112040 -0.161582 0.079057 -0.040885 -0.014051 -0.058387 -0.133535 -0.052435 0.036198 0.018641 -0.003740 -0.041623 
赠送 0.164453 0.122650 -0.143719 -0.004844 0.016469 -0.049279 0.065793 0.012901 -0.088833 0.015726 -0.182608 0.144579 -0.073673 -0.010487 0.183452 0.056495 0.056941 -0.085739 0.059208 -0.015710 0.059466 0.070946 -0.043225 -0.129109 0.107051 0.206332 -0.088178 0.008473 -0.042835 -0.029582 0.045840 -0.228213 -0.175752 0.099784 -0.085644 0.141068 0.170169 -0.245612 -0.194607 0.107435 0.193042 -0.106154 0.038661 -0.003027 0.116563 0.022239 -0.117147 0.026023 -0.072600 -0.021091 
退 -0.330400 0.052427 -0.058227 0.176190 0.241035 0.041412 -0.029314 0.266712 0.172055 0.008329 -0.014000 0.048283 0.295863 -0.340276 -0.075279 -0.225748 -0.147167 -0.173591 0.288782 -0.065059 0.060103 0.168136 0.067490 0.072946 0.174853 0.194296 0.059928 0.162881 -0.289002 -0.167992 -0.302870 0.108421 -0.074886 -0.089788 -0.318235 -0.162562 -0.025626 0.014206 -0.050620 -0.080035 -0.049808 -0.102770 -0.058831 -0.042052 0.082305 -0.076339 0.137794 -0.170386 0.266413 -0.216792 
来 -0.039749 -0.196748 0.029111 -0.001160 0.015958 0.037418 0.041851 0.095888 -0.089371 -0.047836 -0.013363 -0.209524 0.048436 0.002269 -0.090052 -0.144739 -0.011573 0.002368 0.074559 0.037721 -0.038768 -0.081892 0.065372 -0.106220 0.043146 0.179342 0.041580 0.110635 -0.025004 -0.054818 0.044697 -0.073249 0.128640 -0.196381 -0.141171 0.016080 -0.169504 -0.026267 0.065330 -0.066603 0.093689 0.219782 0.066356 0.002094 0.020527 0.051558 0.031644 0.110594 0.084507 -0.162638 
又 0.043789 -0.045303 -0.049891 -0.059527 -0.009254 -0.116569 -0.107796 0.130564 -0.213574 0.052965 -0.063526 0.074519 0.060701 0.040737 -0.124167 0.087808 0.010616 0.068077 -0.051440 0.130675 -0.108466 0.018410 -0.008401 0.042918 0.033787 -0.069434 0.209492 0.033767 -0.081117 -0.031571 0.070879 -0.093824 0.055631 -0.031335 -0.234250 0.001886 -0.038425 0.118185 0.044135 0.153639 0.187285 0.016572 0.024534 0.125176 -0.084573 0.035093 0.162358 0.131764 0.150857 -0.152630 
年 0.240041 -0.192403 0.137704 0.043083 -0.144596 0.298415 -0.000043 0.186439 -0.126385 0.087851 -0.063716 -0.064145 -0.003839 -0.174176 -0.058947 0.016830 0.114067 -0.049864 -0.022492 -0.192724 0.030573 -0.056280 -0.014040 0.110611 0.135374 -0.373337 -0.154919 0.099339 -0.100499 0.131911 0.153821 0.040863 -0.150536 -0.006693 -0.270570 0.188092 0.012921 -0.308316 0.121501 0.095476 -0.245375 -0.083874 0.079312 0.149785 -0.046427 0.150475 0.155761 -0.001450 0.155550 0.088048 
再 -0.095432 -0.194216 -0.063402 0.009240 -0.069785 -0.203938 0.046777 -0.047414 -0.110604 -0.111132 -0.059944 -0.159778 0.080028 -0.117295 -0.098667 -0.020322 -0.088908 -0.035600 -0.041193 0.040802 0.053879 -0.055945 -0.034344 -0.037226 0.056665 -0.000087 -0.203450 -0.122748 0.023424 0.034607 0.034518 0.019689 0.151951 -0.229116 -0.045150 0.051049 0.009684 -0.020799 0.070266 -0.102139 0.103076 0.227049 0.036759 0.069882 -0.128719 0.027648 0.009546 0.140116 0.178953 -0.087591 
30 -0.049865 0.147098 0.093077 -0.124202 0.056804 0.213554 -0.148429 0.109869 -0.113975 0.174434 -0.083803 0.205514 -0.203185 -0.256610 0.071156 -0.090699 0.091933 -0.072856 0.017372 0.257176 -0.002880 0.044400 -0.014528 0.046537 0.101066 -0.062557 -0.026397 -0.042535 -0.160619 0.097060 0.033758 -0.049444 -0.073439 -0.140481 0.007129 0.065170 0.114109 -0.301328 -0.000008 0.220629 0.041684 -0.041370 0.030970 0.017682 -0.105918 -0.239382 0.166285 0.025906 0.069105 -0.160529 
后 -0.001028 0.124851 -0.024759 -0.073584 -0.247234 -0.096999 -0.017647 -0.060545 0.142268 0.041216 -0.166636 0.041878 0.004622 -0.227798 0.021032 -0.078686 -0.050038 -0.016456 -0.079363 -0.004742 -0.001804 -0.159810 -0.008914 0.023057 0.179734 -0.036211 -0.169704 0.075143 0.002392 0.068789 0.077217 -0.168815 -0.086342 -0.060684 0.146722 0.103918 0.137470 -0.214926 0.024150 0.027624 0.129578 -0.037242 -0.091250 -0.001047 0.111900 -0.019072 0.023811 0.345074 0.202198 -0.052531 
昨天 0.172020 -0.177307 0.014790 0.124626 0.125549 0.041796 -0.115740 0.077443 0.051263 0.161489 -0.027461 0.080281 0.113304 -0.068629 0.088662 -0.011082 0.091676 -0.008003 -0.007027 0.130023 -0.136586 0.016466 -0.158247 0.231844 -0.187884 -0.057283 0.391949 -0.173369 0.054877 0.128722 -0.036122 -0.194357 0.117799 -0.110605 0.013959 0.055789 -0.061459 0.070189 -0.187759 -0.006590 -0.034532 0.136576 -0.156810 -0.059490 -0.018586 -0.056139 0.196181 0.215739 0.237020 -0.158258 
然后 0.129664 -0.066746 0.055565 0.050197 0.000882 -0.015256 0.013250 -0.031892 -0.023942 -0.020717 0.004245 0.076638 0.127503 0.014811 0.106353 -0.002883 0.171771 -0.096963 -0.079910 0.014430 -0.189712 -0.041301 -0.133683 -0.031279 0.048870 -0.151243 -0.086055 -0.035397 -0.088796 -0.026517 -0.033498 0.001698 0.036182 -0.023637 -0.136416 -0.019156 -0.130269 -0.074567 -0.044899 0.075523 0.170194 0.177739 0.124506 0.046978 -0.080953 0.026725 0.001177 0.098588 0.091121 -0.144882 
资费 -0.012180 -0.171867 0.075054 0.034764 -0.016400 0.039971 -0.057516 0.036467 -0.051319 0.079762 -0.222109 0.016134 -0.281250 0.107145 0.082557 -0.232397 -0.190978 0.265000 0.055060 -0.294162 0.306207 -0.090017 0.055839 -0.051667 0.093754 -0.074206 0.048247 0.186629 -0.149689 0.043523 0.126108 0.020723 0.047876 -0.145057 -0.025985 0.026538 0.146051 -0.075012 0.036207 -0.163723 -0.132008 -0.170215 0.023402 -0.053476 -0.082092 0.081608 -0.407418 -0.289715 -0.033425 -0.006753 
他 -0.088707 0.014705 -0.057604 0.052557 0.124204 -0.029046 -0.094697 -0.113451 -0.084300 -0.079259 0.021729 0.009949 0.420396 -0.002174 -0.179230 0.014867 -0.100847 0.199652 0.024089 0.091263 0.011022 -0.238917 -0.103980 -0.077226 0.049366 -0.036365 0.010981 -0.017558 -0.024076 0.039599 0.032954 0.046510 -0.082429 0.005293 -0.013146 0.084763 -0.140787 0.102083 0.035589 0.078032 0.052769 0.105927 0.021703 0.143311 0.049860 0.101495 0.059268 0.274526 0.058892 0.119861 
自己 0.009434 0.015469 0.097879 0.075998 -0.022210 0.154284 -0.037076 -0.084793 0.081021 -0.024439 -0.027077 -0.107729 0.055312 -0.002109 0.040391 -0.083877 0.022213 -0.009222 0.064547 0.023757 -0.057253 -0.160890 -0.022312 -0.111198 0.033972 -0.004271 -0.015890 0.021144 -0.091473 -0.003726 -0.014939 -0.061110 -0.115298 0.035000 -0.166877 0.002965 -0.066009 0.110084 0.072360 -0.005067 0.090293 0.130479 0.019026 0.045591 0.023419 -0.060442 -0.061113 0.030284 0.121274 0.006564 
转 0.047359 0.017916 -0.023605 -0.235128 -0.119541 0.058909 -0.077388 0.182736 0.046389 0.103284 -0.192824 0.265947 0.052990 0.089959 0.118129 -0.137071 -0.035168 -0.033829 0.139450 -0.027848 0.141176 -0.101057 0.241304 -0.282055 -0.064092 -0.030164 -0.159263 -0.019894 -0.033031 0.029587 0.033310 -0.168508 0.030092 -0.016275 -0.154847 -0.051573 -0.008319 0.118329 0.189304 -0.151445 0.002236 0.011232 -0.031734 -0.032478 0.116841 0.187256 -0.225263 0.004909 0.069990 0.235832 
只 0.097943 -0.022389 -0.058881 0.155485 -0.022519 0.080883 -0.098862 -0.072726 -0.006761 0.026527 -0.162836 -0.056378 0.022750 0.091159 0.070482 -0.104115 0.087219 0.041093 -0.004131 0.114232 0.011196 0.243123 0.063695 -0.055674 0.035563 -0.117127 -0.018860 -0.125866 0.076679 0.141870 0.077878 -0.114316 0.084755 -0.077561 -0.122871 0.195069 0.035870 -0.125387 0.064045 -0.012483 -0.051894 0.059260 0.196879 -0.030453 -0.052601 0.016191 -0.077981 0.007223 0.023452 -0.119354 
信息 -0.186573 -0.054385 0.043507 0.106778 0.004800 -0.104677 0.006515 -0.209296 -0.050921 0.050243 -0.036135 0.010656 0.123917 0.137053 -0.254973 -0.060130 -0.081282 0.125341 -0.048569 0.165538 -0.125185 -0.138976 0.001112 0.000336 0.226403 -0.133040 0.239774 -0.152010 0.132514 0.017435 0.089020 -0.136695 0.039013 0.232064 -0.155642 -0.056007 0.009015 0.144177 0.290007 -0.048007 -0.003953 0.156131 -0.033503 -0.062746 0.089081 -0.029472 0.149364 0.129292 0.094331 -0.217401 
如果 -0.005704 -0.111814 -0.156082 -0.029116 -0.042057 0.034419 -0.099157 -0.022403 0.181164 -0.269895 -0.147400 -0.196300 -0.079859 0.008433 -0.004397 -0.172934 0.131344 -0.134965 0.022922 -0.028828 0.117117 -0.173764 0.280615 -0.134401 0.127189 -0.032078 0.035948 0.098532 0.066812 -0.162210 0.018268 0.006411 -0.025217 -0.146280 -0.051398 0.034630 -0.041761 0.155388 -0.015565 0.196569 -0.046789 -0.055456 -0.014992 -0.054676 -0.103298 -0.048930 -0.011590 0.193695 0.240013 -0.152953 
一直 -0.074921 0.026177 -0.110564 0.270007 0.032875 0.044818 -0.262010 -0.032065 0.010293 0.059429 0.190670 -0.022763 0.193833 -0.135314 -0.059189 0.096412 0.093626 -0.028350 -0.166335 -0.108692 -0.116558 -0.150371 0.044839 0.169619 0.058396 0.078198 0.107549 -0.030711 0.113160 0.046623 0.031224 0.021837 0.074444 -0.184973 -0.094758 -0.136571 -0.145046 -0.022911 -0.090629 0.028097 0.167445 0.027023 0.129553 -0.103288 0.025126 0.141657 0.127006 0.254263 0.019881 -0.078018 
完 0.099176 -0.083049 -0.059079 -0.009632 0.074563 0.018030 -0.023786 0.035722 0.134822 0.060879 -0.087543 -0.019788 -0.083576 -0.209501 0.188962 -0.043226 0.114721 -0.205883 -0.200038 0.117432 0.046044 -0.111360 0.044632 -0.295853 0.025209 -0.113545 -0.079720 -0.068650 0.052726 -0.082214 0.028776 -0.086035 0.140482 0.006833 0.005515 0.097944 0.068073 -0.316373 -0.133792 0.024425 0.101283 0.103573 -0.146487 0.180688 -0.075170 0.048685 0.083948 0.094042 0.166381 -0.207295 
之前 0.037154 -0.044515 -0.081543 -0.069760 -0.039492 -0.235479 -0.015983 -0.024863 0.008323 0.033085 -0.030928 -0.011633 -0.068240 -0.126836 -0.083930 -0.032726 -0.084832 -0.039721 -0.065152 0.012866 -0.028537 -0.003409 -0.044774 0.013906 -0.048249 -0.183634 0.037321 -0.016887 -0.048009 0.021353 0.062298 -0.061066 0.092801 0.002476 -0.041508 0.181591 -0.072949 -0.020578 -0.005575 -0.084393 0.009701 0.125787 -0.079788 0.049599 0.007967 0.026089 0.073069 0.111721 0.143510 -0.102555 
欠费 0.026176 0.045029 -0.139821 0.043080 -0.116785 0.170632 -0.412556 -0.040834 -0.062103 0.137320 -0.267852 -0.052400 -0.006221 -0.014200 0.060885 -0.044110 -0.045625 -0.028884 -0.208281 0.032840 -0.096221 0.158139 0.011012 -0.013139 0.166350 -0.087839 0.038929 -0.123181 0.030568 0.076812 0.056268 -0.033010 0.148767 -0.368395 -0.081035 -0.174757 -0.119040 0.087167 0.135063 0.215887 -0.048082 0.059183 -0.047856 -0.253441 -0.203926 -0.177033 0.288487 0.080396 0.360857 -0.080318 
收费 0.050596 -0.046683 0.070993 0.000077 -0.219366 -0.266096 0.023413 0.138513 0.012898 -0.041706 -0.148586 0.062281 0.016140 -0.046519 -0.017830 -0.249605 -0.028653 0.179939 -0.056174 -0.322066 0.068242 0.026425 0.347880 0.045226 0.337040 -0.197540 0.365282 -0.029190 -0.066463 -0.138688 0.093368 -0.033041 0.025326 -0.190338 0.223115 -0.085951 0.084109 0.012806 0.117773 -0.042333 0.003532 0.054377 0.138185 -0.113959 -0.031131 -0.149304 0.040876 0.052830 -0.122350 -0.235543 
投诉 -0.135626 -0.112095 0.131351 -0.184462 0.163204 0.217329 -0.040632 0.116555 0.038565 -0.169657 0.220068 -0.200642 -0.016240 -0.228522 -0.169695 0.150225 0.147262 0.172539 0.185919 -0.064661 -0.344778 -0.219211 0.099988 -0.208051 -0.188034 0.169703 0.042396 0.179401 0.022805 -0.082619 -0.116225 0.020938 0.336023 -0.108420 -0.062364 0.023303 -0.200309 0.020988 0.174234 0.022665 -0.069693 0.061097 -0.107844 0.174804 -0.000410 0.144851 0.104724 0.027943 -0.029209 0.087972 
通话 0.113197 0.184203 0.185864 -0.032065 -0.101218 0.012983 0.055723 -0.045700 0.060061 0.263192 -0.291397 -0.016772 -0.066396 -0.046296 -0.118877 -0.028164 -0.321992 0.028042 -0.078786 -0.232503 0.191318 -0.043675 -0.078155 -0.094667 0.022312 0.312272 -0.101880 -0.211118 0.126158 -0.168582 -0.075047 -0.251857 0.030745 0.056764 -0.138886 -0.027713 0.036470 0.198550 -0.249450 0.219658 -0.205160 -0.157955 0.118599 -0.107589 0.253158 0.210041 0.037605 -0.111237 -0.135035 -0.317566 
得 -0.043661 -0.102530 0.028896 0.020218 0.057177 0.087841 -0.037450 0.050044 -0.035934 -0.040612 -0.048089 -0.231073 -0.054655 0.026244 -0.046646 0.015218 0.008435 0.031335 0.070885 0.009504 0.114889 -0.134001 -0.117036 -0.078681 -0.048907 0.120293 -0.098002 0.080112 -0.011850 -0.038234 -0.011084 -0.072580 0.055819 -0.009062 -0.196773 0.049142 0.039626 0.082995 -0.106509 -0.001529 0.124914 0.119903 0.076360 -0.057434 0.119742 -0.090631 -0.033677 -0.009532 0.067881 0.073404 
怎么办 -0.084165 -0.095073 -0.018250 -0.103140 -0.126779 0.141455 -0.073469 -0.145681 0.045977 -0.122888 0.222220 0.106807 0.000459 -0.120252 -0.168772 -0.045230 -0.114250 -0.036166 -0.064932 0.098256 0.111498 0.019511 0.158461 -0.128493 0.103230 0.010957 -0.068173 -0.080520 -0.117046 -0.042187 0.205534 -0.079387 -0.170893 -0.073735 0.096871 -0.147388 0.047902 0.139942 -0.000635 0.032191 0.131527 0.064984 0.112615 0.008582 -0.019259 0.104162 0.064066 -0.073606 0.147594 0.159484 
挂断 0.281950 -0.118783 0.472707 0.168673 -0.230917 0.125465 0.267331 -0.386324 0.124466 -0.138039 -0.101022 -0.066833 0.092711 -0.108835 0.376081 -0.341810 -0.212827 0.390139 0.509409 0.080863 0.017854 -0.266768 -0.008345 0.018741 0.034870 -0.116013 -0.419168 0.073508 -0.177462 -0.077171 -0.169686 0.044835 0.088089 0.344233 0.226816 -0.257326 -0.300075 0.279817 0.018357 -0.323857 0.269242 -0.100114 0.016507 -0.287156 -0.219319 0.220368 0.205849 -0.095982 0.067469 0.058742 
账 0.216082 0.099763 0.015948 -0.013957 0.219654 0.402207 -0.202418 0.179739 -0.160367 0.336728 -0.007435 0.126989 -0.062408 0.054868 0.182394 0.020834 0.227360 -0.161585 -0.018861 0.061138 0.120761 0.188777 -0.036106 0.007594 -0.044878 -0.075712 0.051299 -0.232659 0.039386 -0.041525 -0.118026 -0.024459 -0.053267 0.029513 0.114066 0.008715 -0.284549 0.137698 -0.172693 0.039353 0.165487 -0.039127 -0.163768 -0.148778 0.233669 -0.313366 0.154872 0.279626 0.133946 -0.154144 
主动 0.160062 -0.112729 0.435007 -0.172910 -0.357083 0.565710 0.318645 -0.066913 -0.051851 0.240245 0.045336 0.149990 -0.118023 -0.163826 0.405558 -0.317891 0.099346 0.304120 0.411697 -0.065915 -0.048171 0.409028 0.252960 0.483056 -0.134406 -0.110764 -0.216400 0.077109 -0.183378 0.125776 -0.101292 0.103037 0.253751 0.217665 0.221272 -0.263790 -0.080543 0.321553 0.033180 -0.330742 0.127664 -0.113069 -0.440223 0.133197 -0.184177 0.262619 -0.485176 0.122360 0.133004 -0.221883 
身份证 -0.184318 -0.138715 -0.325215 0.007951 -0.220170 -0.048714 -0.154790 -0.144221 0.063246 -0.421718 0.047916 -0.105869 -0.095507 0.073026 -0.075940 -0.052948 -0.240862 -0.132376 0.075199 0.169007 -0.079518 -0.296493 -0.017306 -0.097706 0.127722 -0.233207 -0.149809 -0.256722 0.201874 0.223628 0.038187 0.086380 -0.354124 0.189564 -0.181745 -0.036034 0.058358 0.445701 0.130642 0.137949 0.123498 0.083136 0.052898 0.024837 0.231548 0.152474 0.153582 0.041282 0.031232 0.240378 
麻烦 0.060662 -0.013884 0.064541 0.108893 0.055443 -0.011315 0.029170 -0.017929 0.032848 -0.047424 -0.092815 -0.096764 0.139364 -0.150719 -0.120193 -0.046881 -0.210289 -0.010703 -0.022841 0.084902 0.070663 0.073270 0.146798 0.022017 -0.080469 -0.030824 0.183559 -0.078737 -0.068885 -0.179490 0.054084 0.166674 0.208227 -0.019111 -0.002587 -0.076180 0.017914 0.070594 -0.087498 -0.196588 0.047293 0.158141 -0.028940 0.053891 0.032995 0.001228 -0.006759 -0.097481 0.038553 0.141967 
实名 -0.065621 -0.241740 -0.030176 0.031013 -0.478570 -0.241388 -0.601882 -0.342958 0.049734 -0.082434 0.076580 -0.060209 -0.081035 -0.485687 -0.136495 -0.279364 -0.105937 -0.174183 0.031774 0.483153 -0.018510 -0.204368 0.050664 0.064619 0.246056 -0.155386 -0.113961 -0.299726 0.462978 0.071126 -0.297167 0.158797 -0.107193 0.233405 0.292367 -0.162978 0.059024 0.200689 0.146766 0.394847 0.281462 0.046979 0.212689 0.029590 -0.041210 0.043298 0.184140 0.155934 0.242988 0.261715 
消费 -0.356238 -0.161223 0.150597 0.044098 -0.040553 0.292643 -0.174178 -0.179701 -0.101043 0.205022 -0.262692 -0.217243 -0.175594 0.140365 -0.076478 -0.130480 -0.082267 -0.054879 -0.152926 0.020281 0.101519 -0.006463 0.157888 0.126045 0.253413 -0.061723 0.180701 0.165383 -0.001655 0.027689 0.024227 0.028601 0.112169 -0.075785 -0.442685 0.304491 0.093017 -0.347585 0.255562 0.366117 -0.045789 0.025201 0.003956 -0.115683 0.177229 -0.119341 -0.205912 -0.182124 -0.287279 -0.021621 
解决 -0.185080 -0.211693 0.202476 -0.224133 0.009381 0.156867 -0.368478 0.177367 -0.088461 0.002582 0.091374 -0.202865 0.038243 -0.256183 -0.266171 0.263195 0.048179 -0.067692 -0.055925 0.157454 -0.271068 -0.074808 0.019178 0.079873 -0.281587 -0.019348 0.165262 0.095957 0.028813 -0.031884 -0.118318 0.240187 -0.011903 -0.250426 0.086735 0.066382 -0.100332 -0.027145 -0.008639 0.154716 -0.019894 0.155676 -0.105881 0.150318 0.183420 0.173131 0.067161 0.076710 0.002362 0.140387 
等 -0.134299 -0.075943 0.009301 0.018508 -0.020808 0.171811 0.046440 0.084707 -0.050313 -0.082267 0.107412 -0.165890 0.120421 -0.096990 -0.044315 -0.053389 0.059187 0.056708 0.053260 0.125587 -0.043782 -0.046334 -0.016273 -0.114002 -0.173562 0.029517 0.185966 0.139501 -0.012270 -0.159389 0.018522 0.131553 0.162731 -0.143675 -0.127989 0.003750 -0.106467 -0.084104 0.046060 0.073441 0.251837 0.127326 -0.082264 -0.000695 0.097427 0.174754 0.127973 0.039804 -0.020030 -0.065075 
可 -0.038741 -0.172396 0.056760 -0.086213 0.138814 -0.038471 0.152389 -0.129887 -0.151774 -0.040563 -0.098563 0.111373 -0.061327 0.024935 0.112888 0.022363 -0.010515 0.121010 -0.014595 0.097133 -0.118234 0.004980 0.100281 -0.120620 0.123296 0.021979 -0.256059 -0.174427 0.111016 0.034717 -0.055431 0.044259 0.050795 -0.104025 -0.155691 0.175957 0.149488 -0.198464 -0.080498 0.040349 0.140977 0.030629 -0.140276 -0.213323 0.123486 -0.017339 0.022071 0.140320 0.176621 0.139319 
绑定 -0.107865 -0.082633 -0.089430 0.147783 -0.070761 -0.103539 0.031899 -0.274883 -0.232764 -0.136935 0.206726 0.239616 0.181571 0.010926 -0.254972 -0.011334 -0.070603 -0.186938 0.006710 -0.284988 -0.007901 -0.000209 -0.019950 -0.146651 0.303674 -0.020487 -0.093830 -0.142113 -0.369859 -0.010943 0.158294 0.111821 0.103766 0.231538 -0.047196 0.008813 -0.170743 0.181854 -0.046254 0.070469 -0.029248 -0.024427 0.087742 0.048904 0.170061 -0.172991 0.017322 0.196855 -0.080562 0.020981 
2 0.096395 -0.077661 -0.010759 0.020544 -0.162638 0.147573 0.253843 -0.078223 -0.261720 0.041989 -0.241353 0.075249 -0.014080 0.179229 -0.035525 -0.283268 0.169775 -0.207431 -0.097692 0.066436 -0.247897 0.213005 -0.074335 -0.078049 0.063336 0.008364 0.000015 0.041478 0.063171 0.023282 -0.043095 -0.004232 -0.055840 -0.149197 0.141924 0.054469 -0.091435 -0.137508 -0.255264 -0.155242 -0.031185 -0.031209 -0.157554 0.050178 0.116531 -0.046799 0.219765 -0.209282 -0.042448 0.017269 
退订 -0.388671 0.089341 -0.098595 0.013359 0.093364 0.119795 -0.081997 0.222583 -0.116340 -0.033784 -0.162639 0.246688 0.201280 -0.178493 -0.033239 -0.076521 -0.049367 0.163384 0.108626 0.041017 0.170323 -0.048076 -0.114578 0.007377 0.081950 0.028277 -0.014712 0.137138 -0.175043 -0.317194 -0.326556 0.306533 -0.098319 -0.014019 -0.049088 -0.364682 -0.010388 -0.248742 -0.124123 -0.349874 -0.278056 0.072564 0.114380 -0.078632 0.295644 -0.013073 0.067714 -0.205946 -0.009735 -0.277479 
充值 0.106797 0.202186 0.183217 0.077554 0.149931 0.393478 -0.405922 0.169711 0.173369 0.267104 -0.007958 0.292296 -0.119263 -0.003145 -0.032880 0.037826 -0.027200 0.004086 0.049255 -0.046361 0.148342 0.290903 -0.171160 0.058165 0.111706 -0.009578 0.058540 -0.492694 0.304020 -0.236393 -0.064047 -0.108119 0.081339 0.153262 0.176432 -0.116421 -0.193348 0.135717 -0.004286 -0.093856 -0.192441 0.029523 -0.233771 0.027481 0.344500 -0.382654 0.124133 0.144144 0.000868 -0.136733 
修改 -0.328654 0.179094 -0.062654 -0.175694 -0.151288 0.307668 0.029920 -0.204084 0.221096 -0.058143 -0.077340 0.235156 0.296188 0.041011 -0.195511 -0.077150 -0.095784 0.217258 0.046586 0.176156 -0.094025 -0.121279 -0.139301 -0.187719 0.105201 0.208412 -0.179399 -0.270211 -0.088850 -0.181472 -0.029033 0.111551 0.033662 0.000930 0.143208 -0.055600 0.235327 -0.113668 0.403535 -0.072665 0.047389 0.184793 0.139344 -0.172767 -0.050285 -0.277928 -0.265175 -0.086832 -0.068283 0.217972 
让 -0.166796 -0.093039 0.018961 0.027403 0.079517 -0.132665 -0.039183 0.119849 -0.193084 0.002366 -0.059903 -0.105627 0.183444 -0.005049 -0.073743 0.115869 -0.102537 0.083234 0.161951 0.258162 -0.232674 -0.062033 -0.034740 -0.008034 -0.155677 0.032011 0.115754 0.111320 -0.193476 0.047355 0.039725 0.095743 0.113715 -0.230004 -0.105330 0.053527 -0.210897 0.037607 -0.075669 0.076011 -0.000154 0.241288 0.045552 0.122441 0.282725 0.190530 0.037962 0.230271 0.232800 0.097019 
嘛 -0.209702 -0.100130 -0.088065 0.225352 0.047373 0.129061 0.090834 -0.183024 0.108380 0.003259 -0.069469 -0.107357 0.063424 -0.076881 -0.145317 -0.161361 -0.017734 -0.141618 0.043839 0.085797 -0.123925 -0.130305 0.093122 -0.160233 -0.028835 0.087675 -0.122716 -0.023778 0.008954 -0.055216 0.084186 0.000081 -0.000619 -0.062833 -0.130101 0.017176 -0.033575 0.023088 0.041058 0.146963 -0.125386 -0.136790 0.020074 -0.147579 0.096882 -0.133968 -0.149374 -0.013247 -0.096417 -0.031553 
哪里 0.163354 0.049793 -0.156153 -0.072268 0.144311 0.086822 0.051376 -0.114582 -0.037952 -0.223444 0.099308 0.044131 -0.014773 -0.003078 -0.045655 -0.060606 -0.154694 -0.045162 0.131476 -0.047871 0.073606 0.038170 -0.063228 -0.013169 -0.158400 0.049679 -0.174932 -0.055696 -0.001751 0.072872 -0.090063 -0.069064 0.176339 0.146571 -0.039008 -0.068641 -0.136876 0.059447 0.230219 -0.064861 0.026024 0.092549 -0.014872 -0.032346 0.422768 -0.078267 -0.078846 -0.031247 0.000639 -0.150536 
为 0.024383 0.177725 0.073947 -0.082623 0.110823 -0.115174 -0.127920 -0.074029 0.154654 -0.102466 -0.079799 0.195141 0.117142 0.009135 -0.042963 -0.089370 -0.115603 -0.028298 -0.053883 -0.076478 -0.048398 0.041199 0.101419 0.049437 0.135835 -0.101809 0.221891 0.052505 0.146997 0.151947 0.267381 0.157465 -0.060755 -0.046992 0.051431 0.099155 -0.004370 -0.051658 -0.320929 -0.055537 0.263854 -0.070196 0.223927 0.038202 0.071706 -0.014731 0.044285 0.040986 -0.035566 0.056037 
省内 0.486353 -0.075244 -0.120602 -0.119999 0.094193 -0.260748 0.157865 -0.101844 0.106072 0.018697 -0.046029 0.024815 -0.166248 -0.025724 -0.006078 -0.065449 0.008038 0.024349 -0.036754 0.122913 0.159394 -0.209493 -0.078918 -0.163490 0.264586 0.347723 -0.230387 -0.032705 -0.139885 0.140423 0.153594 -0.075789 0.055894 -0.029451 0.057165 -0.022576 0.161521 -0.393736 -0.282402 -0.010796 -0.145029 0.018830 0.169276 -0.136262 0.178229 -0.088435 -0.060685 -0.057025 -0.023458 -0.012946 
交 -0.023888 0.106912 -0.003842 0.120804 0.019352 0.215177 -0.267996 0.213108 -0.078604 -0.012037 -0.229388 -0.223701 0.147554 -0.063636 0.060211 -0.052669 -0.126535 0.005862 -0.071608 -0.032820 0.038928 0.103556 -0.030398 0.234545 -0.005876 -0.277766 -0.009817 -0.120472 -0.175841 0.047347 0.057944 -0.032538 0.120012 -0.045682 -0.088727 0.087987 -0.135112 0.129988 0.019566 0.165699 0.102045 -0.054635 0.012889 0.049603 -0.136754 -0.144902 0.215618 0.206171 -0.028837 -0.084100 
哪 0.150128 0.032563 -0.054383 -0.096922 0.098594 -0.001437 0.014329 -0.157980 -0.176255 -0.006955 -0.077538 0.123684 -0.072440 0.195847 -0.188004 -0.111927 -0.152274 -0.173543 0.152117 -0.004211 0.173891 0.137690 -0.070731 0.064846 -0.239604 0.085523 0.055122 0.011870 -0.157405 0.010429 -0.050428 -0.054539 0.113162 0.053648 -0.047533 -0.068172 -0.141151 -0.171563 -0.062470 -0.175801 0.054261 0.170241 0.030482 0.111108 0.145549 -0.012475 -0.050585 0.054319 -0.117004 0.059910 
优惠 0.125075 0.094264 0.009749 0.026228 0.118985 0.003016 0.070255 -0.109176 -0.034689 -0.027802 -0.117020 0.037755 0.083595 0.057063 0.083388 -0.069414 0.121653 0.084229 -0.020618 -0.239190 0.238596 0.038199 -0.041073 0.026689 -0.057732 -0.030140 -0.033263 -0.065475 -0.306128 0.138553 0.006714 -0.122953 0.023740 0.126942 0.046514 0.084889 0.202638 -0.064751 -0.107012 0.058018 -0.152856 -0.157123 0.060228 0.013599 0.215451 0.126972 -0.069328 -0.103038 -0.235462 0.046874 
18 -0.378059 -0.178809 -0.083846 -0.205083 -0.038451 -0.105855 -0.013452 -0.009613 -0.130834 0.210357 -0.143142 0.167314 -0.269404 -0.263510 0.187067 -0.130379 -0.229444 0.162908 0.046778 -0.112693 0.197771 -0.015623 -0.001397 0.069922 0.088905 -0.095129 -0.053143 -0.076533 -0.062943 0.027186 -0.039259 -0.011895 -0.199439 -0.172965 0.016785 0.199884 -0.004055 0.067784 -0.208163 0.192200 0.096551 -0.058462 0.037641 -0.154812 -0.122729 -0.115686 -0.053848 -0.500369 -0.246542 -0.146092 
找 -0.030667 -0.104269 -0.086510 -0.051871 -0.004552 -0.108317 -0.167046 0.035324 0.079841 -0.050554 0.200580 0.017573 0.048821 0.289392 -0.196218 -0.059284 -0.121162 0.023581 0.129263 -0.174155 0.092607 -0.037816 -0.242533 -0.115311 -0.160671 -0.160585 -0.000476 0.096484 0.083946 0.070044 -0.035316 0.078767 0.151616 -0.049724 -0.064317 -0.155306 -0.380682 0.079253 0.027516 0.061911 0.155761 0.171735 0.059912 -0.041667 0.199949 0.104373 0.102246 -0.096575 0.225404 -0.061292 
网上 0.131021 -0.095428 0.076010 -0.051828 -0.024925 -0.002780 0.086451 -0.031266 0.074720 -0.059802 -0.019654 0.003867 -0.226188 0.089705 -0.153488 -0.062447 -0.186496 -0.235929 0.245049 -0.252708 -0.000991 0.019168 -0.048484 0.221523 0.257222 -0.163259 -0.122312 -0.023159 0.116382 -0.115968 -0.196827 0.171005 -0.210232 -0.162969 -0.121856 -0.181595 -0.002811 0.198653 0.050202 0.026852 0.033074 0.069621 0.136432 0.157928 0.259639 0.214651 -0.035039 0.092057 -0.041592 0.178910 
里 0.242429 -0.092913 -0.080437 0.091095 0.055669 -0.071983 -0.228064 0.093428 0.120459 0.019251 -0.105929 0.288223 -0.068917 0.092275 0.017843 -0.312552 0.041726 0.069562 -0.063915 -0.182512 -0.057082 0.011416 -0.108742 0.112012 0.005148 -0.085727 0.008018 -0.056313 0.168748 0.130922 0.060513 -0.182962 0.155090 0.179297 0.030975 0.095692 -0.211862 0.076599 0.144875 0.057714 0.109221 -0.023373 0.080032 -0.011915 0.120897 0.003065 0.108499 0.080103 0.003841 -0.015856 
每个 -0.192933 0.024419 0.042038 -0.069899 -0.210041 0.137734 -0.134639 -0.061575 -0.115444 0.156705 -0.213164 -0.155036 -0.011671 -0.178810 0.294127 -0.183415 0.220139 -0.030257 -0.083009 -0.133301 0.108977 0.224437 -0.036434 0.103340 0.017779 0.055195 -0.214306 0.071463 -0.197862 -0.065665 -0.005531 -0.180432 -0.002010 -0.191854 -0.241676 0.267034 -0.166668 -0.116515 0.042746 -0.078447 0.164389 0.000909 0.343717 0.146621 -0.110916 -0.155687 0.185826 -0.169867 -0.178245 -0.205447 
